SVM-light Version V6.02
0 # kernel type
3 # kernel parameter -d 
1 # kernel parameter -g 
1 # kernel parameter -s 
1 # kernel parameter -r 
empty# kernel parameter -u 
3885 # highest feature index 
10000 # number of training documents 
6759 # number of support vectors plus 1 
0.17735867 # threshold b, each following line is a SV (starting with alpha*y)
-0.15278612000642735613276101958036 276:0.228 1005:0.36899999 1242:0.27500001 1257:1.8559999 1549:1.8559999 1874:0.47299999 1972:2.55 2453:0.74900001 2755:0.13500001 3638:0.963 #
0.15278612000642735613276101958036 828:0.949 #
-0.15278612000642735613276101958036 552:0.26199999 585:0.24600001 828:0.59600002 839:0.12800001 1048:0.17900001 2156:0.68699998 2289:0.71600002 2755:0.13500001 3174:0.19599999 3772:0.83700001 #
-0.12256581838355656843830843172327 556:1.386 828:0.56900001 839:0.121 1833:0.40000001 2595:1.516 2755:0.13500001 #
-0.15278612000642735613276101958036 243:3 430:0.74199998 968:0.63700002 1048:0.20200001 1609:0.44499999 1874:0.81300002 2186:0.76800001 2375:1.528 2755:0.106 3292:1.183 #
0.15278612000642735613276101958036 552:0.20299999 562:0.32100001 585:0.243 839:0.103 1314:0.31400001 1833:0.30199999 2755:0.082999997 3487:0.30700001 3586:0.19499999 3770:0.398 #
-0.15278612000642735613276101958036 839:0.17299999 1486:0.79900002 1513:1.8559999 1874:0.477 2198:0.322 2259:0.514 2549:1.345 3266:0.359 3610:0.51800001 3698:1.3099999 #
0.081883290318481530278837965397543 49:0.29899999 562:0.25400001 1048:0.23800001 1242:0.29300001 1321:0.208 1400:0.625 1513:1.363 2494:1.528 2755:0.097000003 3552:0.40700001 3650:0.49399999 #
0.04900313172011624279766905942779 49:0.301 148:0.20999999 464:1.3329999 472:0.414 839:0.081 1242:0.162 2442:0.236 2755:0.059999999 2758:0.252 3393:0.56199998 #
0.15278612000642735613276101958036 1177:1.256 1321:0.336 1513:1.117 2259:0.20200001 2755:0.098999999 #
-0.0029476419898740004524317903644715 127:0.94 430:0.90499997 828:0.47 1242:0.22499999 1609:0.77399999 1703:3.391 1957:1.059 2442:0.50999999 2458:0.49399999 2755:0.12800001 3185:0.99299997 3199:0.653 #
-0.15278612000642735613276101958036 552:0.27200001 564:0.62 839:0.17200001 1048:0.20299999 2017:0.271 2755:0.15099999 2864:0.255 3174:0.20100001 3586:0.35299999 #
-0.15278612000642735613276101958036 148:0.193 472:0.289 562:0.23899999 691:0.30700001 839:0.12800001 849:0.36300001 876:0.29899999 1242:0.119 1469:0.384 2755:0.105 3883:0.28999999 #
0.15278612000642735613276101958036 148:0.31600001 1257:1.626 1321:0.226 1766:0.31799999 1929:1.075 2198:0.289 2755:0.068000004 3025:0.56199998 3048:1.3099999 3292:0.29100001 3698:1.3329999 #
0.15278612000642735613276101958036 382:3 477:3 587:0.67299998 839:0.098999999 1005:0.301 2350:3 2453:0.67900002 2755:0.077 3471:0.64499998 3498:0.59600002 #
0.15278612000642735613276101958036 441:2.55 839:0.124 1048:0.134 1513:1.022 1579:0.391 2259:0.13699999 2755:0.101 3174:0.336 3199:0.49700001 #
0.15278612000642735613276101958036 587:1.927 1005:1.237 1043:1.9220001 1223:1.931 2198:1.256 2458:1.247 2755:0.111 3567:1.771 3586:0.64300001 #
-0.15278612000642735613276101958036 828:0.34299999 1048:0.193 1242:0.26300001 1418:0.63 2198:0.36700001 2442:0.38100001 2581:0.671 2755:0.185 3414:0.68300003 #
-0.026717977286726563024288338965562 241:0.56900001 535:0.66900003 752:0.66399997 839:0.17299999 932:0.31200001 945:4.3590002 953:4.3590002 1048:0.12899999 2442:0.90100002 2755:0.115 2801:0.331 3393:0.97500002 #
-0.15278612000642735613276101958036 839:0.117 1048:0.167 1549:0.93800002 1857:0.25999999 2506:0.89200002 2755:0.111 2848:0.88700002 2851:0.75099999 3123:0.88099998 3174:0.189 3552:0.46700001 #
0.15278612000642735613276101958036 89:0.32800001 828:0.40400001 2017:0.359 2755:0.125 2833:1.145 3585:1.143 #
-0.15278612000642735613276101958036 1048:0.19599999 1212:0.405 1951:0.55000001 2259:0.241 2755:0.121 3174:0.154 3466:1.483 3638:0.61400002 #
-0.15278612000642735613276101958036 148:0.30399999 472:0.39199999 562:0.44 691:0.285 839:0.189 849:0.447 876:0.333 1242:0.28299999 1469:0.46000001 2755:0.175 3883:0.29100001 #
-0.15278612000642735613276101958036 112:0.935 260:0.93199998 1212:0.34999999 1314:0.47400001 1762:0.72100002 2186:0.35699999 2755:0.141 3466:0.99199998 #
-0.15278612000642735613276101958036 276:0.228 336:1.122 510:1.074 1054:1.087 1212:0.63599998 2017:0.167 2259:0.21799999 2539:2.0680001 2755:0.168 #
0.15278612000642735613276101958036 839:0.13 2017:0.34099999 2506:3 2755:0.105 3025:0.72000003 3185:0.68300003 3552:0.55599999 3764:1.216 #
0.15278612000642735613276101958036 148:0.241 839:0.139 968:0.72799999 1144:0.449 1163:0.58999997 1546:0.713 1579:0.32499999 2259:0.17900001 2755:0.112 3199:0.28299999 3507:1.378 #
0.15278612000642735613276101958036 839:0.086000003 1048:0.16 1549:1.4529999 1857:0.31 2506:1.471 2755:0.081 2848:1.482 2851:0.68400002 3123:1.133 3174:0.16500001 3552:0.51599997 #
0.054860044909219335407257744918752 552:0.19499999 562:0.55500001 585:0.22 839:0.089000002 1314:0.48199999 1833:0.53899997 2755:0.075000003 3487:0.53899997 3586:0.205 3770:0.597 #
-0.15278612000642735613276101958036 839:0.133 2755:0.111 3355:1.4579999 #
0.15278612000642735613276101958036 148:0.207 576:0.80800003 839:0.097000003 883:1.072 979:1.528 2755:0.079000004 3185:0.68099999 3242:0.70099998 #
0.15278612000642735613276101958036 510:3.148 828:0.62300003 1054:3.21 1242:0.35299999 2197:1.5319999 3001:0.95599997 3028:3.6689999 3033:2.4030001 3214:1.704 #
0.11286021577025488749068671268105 148:1.028 619:2.3800001 839:0.117 2442:0.333 2485:1.069 2755:0.071000002 #
0.15278612000642735613276101958036 49:0.30000001 550:1.467 839:0.083999999 1874:1.3430001 2458:0.935 #
-0.054041679817272987584875210131941 174:0.77100003 732:0.51700002 839:0.125 893:4.3590002 1792:0.17200001 1833:0.31200001 1929:2.9779999 2017:0.27399999 2458:0.35600001 2755:0.108 3160:1.194 3764:1.04 #
0.15278612000642735613276101958036 148:0.23 839:0.125 968:0.616 1144:0.40400001 1163:0.57300001 1546:0.79699999 1579:0.33000001 2259:0.177 2755:0.094999999 3199:0.336 3507:1.176 #
0.15278612000642735613276101958036 547:0.62300003 552:0.59799999 839:0.11 876:0.31799999 893:3 1792:0.42500001 2458:0.26800001 2755:0.090999998 2758:0.53600001 3266:0.40400001 #
0.012416676665332861476120918098331 552:0.271 585:0.25999999 839:0.109 1098:0.671 1792:0.382 2755:0.1 3675:2.3800001 #
-0.15278612000642735613276101958036 839:0.124 1486:0.43599999 1513:0.77899998 1874:0.31999999 2198:0.27399999 2259:0.146 2549:1.3329999 2755:0.115 3266:0.257 3610:0.58200002 3698:1.635 #
-0.15278612000642735613276101958036 587:1.346 1005:0.98199999 1043:1.404 1223:1.387 2198:1.02 2458:1.0039999 2755:0.113 3567:1.326 3586:0.62699997 #
-0.15278612000642735613276101958036 497:0.49000001 552:0.25799999 648:0.51300001 839:0.12800001 876:0.50599998 2750:0.20100001 2755:0.122 3185:2 3586:0.31200001 #
-0.15278612000642735613276101958036 148:0.20999999 381:0.79000002 839:0.121 1122:0.48699999 1265:1.363 1912:0.95499998 2458:0.70999998 2712:0.33399999 2755:0.16500001 3025:0.82300001 3552:0.34099999 #
-0.15278612000642735613276101958036 49:0.338 550:1.403 784:1 839:0.134 1321:0.28 2755:0.127 3190:0.36700001 #
-0.15278612000642735613276101958036 89:0.192 430:0.61299998 458:1.528 647:0.75 692:1.1160001 732:0.551 839:0.124 1232:1.434 1473:2 2017:0.285 2402:0.66799998 2755:0.115 #
-0.14930905609472228112721836623678 6:1.1289999 542:3.312 1369:1.089 1547:4.0430002 1609:0.34099999 1792:0.221 2259:0.23100001 2387:3.1210001 2755:0.13699999 3248:3.7679999 3292:0.40400001 3510:4.3590002 3638:0.87099999 #
-0.15278612000642735613276101958036 550:1.219 839:0.14399999 1857:0.33399999 1983:0.55900002 2054:0.72399998 2755:0.134 #
-0.15278612000642735613276101958036 510:1.543 828:0.34200001 1054:1.572 1242:0.18799999 2197:1.0829999 3001:0.49599999 3028:2.4790001 3033:1.457 3214:1.1289999 #
-0.15278612000642735613276101958036 587:1.346 1005:0.98199999 1043:1.404 1223:1.387 2198:1.02 2458:1.0039999 2755:0.113 3567:1.326 3586:0.62699997 #
-0.15278612000642735613276101958036 510:1.67 828:0.34799999 1054:1.6950001 1242:0.185 2197:1.076 3001:0.465 3028:3.1800001 3033:1.484 3214:1.125 #
-0.03546030912343257207597346791772 839:0.113 2453:0.597 2559:4.3590002 2755:0.139 3025:0.73100001 3143:4.3590002 3552:0.41499999 3764:0.824 #
0.046248666837204806256966804767217 121:4.3590002 798:2.3800001 1265:4.3590002 2259:1.4579999 2568:4.3590002 3061:4.3590002 #
0.097960570772288035890085211576661 839:0.093000002 1912:2.7880001 1983:0.87199998 2755:0.068000004 #
0.043761561738816297240095565257434 117:3.1800001 732:0.551 798:0.88099998 839:0.094999999 912:2.49 1239:0.52399999 1572:1.8559999 2198:0.442 2755:0.079999998 3586:0.27399999 3650:0.60600001 #
0.15278612000642735613276101958036 497:0.38 552:0.21600001 648:0.412 839:0.092 876:0.199 2750:0.252 2755:0.075000003 3185:0.37 3586:0.241 #
0.059645925915072742218292489724263 883:2.198 932:2.198 1513:2.198 1964:2.198 2036:2.198 2590:2.198 2755:2.102 3610:2.1140001 #
0.15278612000642735613276101958036 552:0.122 564:0.67299998 839:0.068999998 1048:0.117 2017:0.234 2755:0.056000002 2864:0.62199998 3174:0.133 3586:0.249 #
0.15278612000642735613276101958036 2461:2 2539:2.145 2755:0.086000003 3516:0.45500001 #
0.15278612000642735613276101958036 892:0.375 1168:1.528 1212:0.49599999 1242:0.33199999 2539:2 2755:0.12 3247:1.6569999 #
0.15278612000642735613276101958036 1321:0.296 2539:1.732 2755:0.121 3769:0.35100001 #
0.15278612000642735613276101958036 76:1.457 222:0.921 563:1.214 564:0.40400001 647:0.90499997 1095:1.615 2539:1.4529999 #
0.15278612000642735613276101958036 49:0.51499999 535:1.436 992:2.075 1005:1.538 1929:1.312 1951:0.86699998 2259:0.62199998 2421:0.47799999 3406:1.482 #
0.15278612000642735613276101958036 587:1.7079999 1005:1.15 1043:1.712 1223:1.739 2198:1.1799999 2458:1.163 2755:0.11 3567:1.6210001 3586:0.63999999 #
0.059533258337225739009745950625074 243:2.3800001 1321:0.347 2755:0.097000003 2851:0.736 3199:0.32600001 #
0.15278612000642735613276101958036 243:1.6160001 839:0.139 1242:0.34599999 2458:0.38600001 2755:0.112 2758:0.52999997 3417:0.81 #
0.086422603978758477660804260267469 430:4.3590002 562:3 793:4.3590002 994:2.3800001 1093:4.3590002 2090:4.3590002 3610:1.436 #
0.15278612000642735613276101958036 644:0.26199999 839:0.096000001 1005:0.324 1186:0.69 2458:0.31299999 2755:0.075000003 3160:2.408 3839:0.36399999 #
0.15278612000642735613276101958036 839:0.109 941:0.546 969:0.62800002 1242:0.14 1466:0.54400003 1904:0.66600001 2442:0.145 2755:0.154 #
0.051185425619068268543454536256831 1255:0.92699999 1378:4.3590002 2375:1.732 2731:0.773 2755:0.083999999 3712:0.82800001 #
0.15278612000642735613276101958036 89:0.36899999 587:0.96899998 784:1.572 828:0.26300001 839:0.098999999 2458:0.26199999 2755:0.068999998 2939:0.40599999 #
0.15278612000642735613276101958036 510:1.006 828:0.46599999 1054:1.216 1242:0.211 2197:0.53799999 3001:0.51700002 3028:2.3800001 3033:1.072 3214:0.72399998 #
0.15278612000642735613276101958036 49:0.214 174:1.003 430:0.76899999 732:0.75099999 828:0.352 2017:0.26499999 2833:0.78100002 3585:0.78100002 #
-0.15278612000642735613276101958036 1256:0.5 2198:0.361 2755:0.141 3222:0.53899997 3376:0.51499999 #
0.0095439509919723122810530924198247 313:4.3590002 325:4.3590002 3428:4.3590002 #
0.15278612000642735613276101958036 839:0.80299997 2458:1.281 2755:0.62900001 2967:3.3080001 #
0.11584597206938782032459300808114 1605:3 1986:3 2692:3.1800001 2755:0.72299999 #
0.060390093001799233229931473942997 496:1.183 2259:0.17900001 2265:4.3590002 2755:0.11 3025:0.59600002 3466:4.3590002 3610:0.426 #
0.15278612000642735613276101958036 49:0.28299999 148:0.38499999 357:0.77899998 650:0.96799999 790:0.96899998 1417:1 1609:0.447 2230:0.66399997 2392:0.97600001 #
0.052516337472277303810574977660508 930:4.3590002 1546:4.3590002 1609:1.635 1610:4.3590002 1898:4.3590002 2198:3.1800001 2259:1.635 2755:0.611 3508:4.3590002 3567:4.3590002 3698:4.3590002 #
0.15278612000642735613276101958036 828:0.264 839:0.086000003 876:0.308 1242:0.167 2197:0.36199999 2259:0.197 2755:0.061000001 3001:0.322 3214:0.347 #
0.032897531824930464905420990362472 932:0.214 1000:2.3800001 1021:0.30599999 1269:3 1434:1.732 1453:4.3590002 1609:0.41600001 2259:0.126 3515:0.338 #
0.15278612000642735613276101958036 157:0.44299999 547:0.41999999 839:0.115 932:0.23100001 1048:0.105 1857:0.331 2017:0.223 2156:0.73400003 2243:0.398 2442:0.15000001 2755:0.093000002 3061:0.41 3174:0.119 3208:0.38600001 3266:0.23800001 #
-0.12485534507790399527671354462655 1419:1.788 1874:0.30399999 2259:0.145 2755:0.108 2872:2 3586:0.25099999 #
-0.1269669991159228794597169098779 408:1.225 430:0.63200003 435:0.55400002 1021:0.315 1122:0.51599997 2019:3 2712:0.171 2755:0.115 3127:0.63599998 #
0.15278612000642735613276101958036 562:0.77200001 656:1.903 1242:0.565 2755:0.093000002 #
0.15278612000642735613276101958036 1143:1.001 1513:1.564 1609:0.62 1762:1.072 1951:0.308 2025:1.1160001 2259:0.16599999 2755:0.109 3556:2 #
0.15278612000642735613276101958036 148:0.20200001 839:0.082999997 968:0.57599998 1144:0.47600001 1163:0.48899999 1546:0.52600002 1579:0.32699999 2259:0.186 2755:0.078000002 3199:0.243 3507:0.96899998 #
0.15278612000642735613276101958036 6:0.91299999 542:1.492 1369:0.96600002 1547:1.624 1609:0.36000001 1792:0.19400001 2259:0.266 2387:1.234 2755:0.088 3248:1.432 3292:0.588 3510:1.625 3638:0.875 #
0.15278612000642735613276101958036 8:0.56 17:0.801 481:0.99599999 839:0.093999997 1242:0.116 1495:0.91000003 1904:1.067 2105:0.29100001 2442:0.176 2755:0.072999999 3567:0.60699999 3702:0.43099999 #
0.15278612000642735613276101958036 430:0.87599999 757:0.34200001 774:1.528 2531:1.528 2935:0.221 #
0.11497644045783111943492826867441 780:1.658 969:1.312 1242:0.36399999 1904:1.074 2442:0.338 2755:0.113 3004:2 3271:1.398 #
0.15278612000642735613276101958036 89:0.477 439:1.8559999 1242:0.235 1904:1.0190001 2017:0.219 2442:0.31 2509:1.8559999 2755:0.075000003 3266:0.43399999 #
-0.15278612000642735613276101958036 148:0.41999999 839:0.125 980:0.847 1324:2.075 1982:2 2458:0.33000001 2755:0.115 2758:1.419 3266:0.25099999 3406:0.99800003 #
-0.15278612000642735613276101958036 6:1.256 542:1.09 1369:1.002 1547:1.732 1609:0.53500003 1792:0.28200001 2259:0.54000002 2387:0.88 2755:0.118 3248:1.363 3292:0.41800001 3510:1.732 3638:0.67199999 #
-0.091781324044157452934911134434515 542:4.3590002 1954:1.483 2755:0.093999997 3272:4.3590002 3471:0.64700001 3555:4.3590002 #
-0.11389659898710235985674898984144 441:4.3590002 1021:0.68800002 1623:1.528 1766:1.072 1874:0.685 2230:0.62699997 2259:0.235 2755:0.183 3136:2.145 3373:0.41600001 3515:0.458 #
-0.15278612000642735613276101958036 222:0.64200002 482:0.63200003 839:0.15800001 912:1.401 1242:0.212 2387:1.1160001 2755:0.134 3033:0.97299999 #
0.15278612000642735613276101958036 636:1.117 1929:0.83499998 1982:1.572 2402:0.39300001 2572:1.2869999 2755:0.117 3406:0.47999999 3732:0.85100001 #
0.15278612000642735613276101958036 148:0.20299999 839:0.103 968:0.54699999 1144:0.36300001 1163:0.50400001 1546:0.588 1579:0.38299999 2259:0.34299999 2755:0.075999998 3199:0.48199999 3507:0.92299998 #
0.15278612000642735613276101958036 148:0.208 839:0.104 968:0.5 1144:0.366 1163:0.55199999 1546:0.59200001 1579:0.368 2259:0.30899999 2755:0.078000002 3199:0.44400001 3507:0.92299998 #
-0.026558071451720659944539804087071 1214:4.3590002 1792:0.25 2572:3 2755:0.12 2758:0.66399997 #
-0.063192676911809839146449974123243 1792:0.32100001 2755:0.121 3507:3.1760001 #
-0.15278612000642735613276101958036 40:2 285:2 475:2 1753:2.5179999 1912:0.93199998 2185:0.79500002 3199:0.72299999 #
-0.15278612000642735613276101958036 828:0.22499999 1048:0.13600001 1242:0.119 1418:0.94199997 2198:0.34599999 2442:0.898 2581:1.026 2755:0.106 3414:0.90100002 #
0.15278612000642735613276101958036 6:0.773 542:1.035 1369:0.75199997 1547:1.084 1609:0.30399999 1792:0.2 2259:0.28099999 2387:0.83200002 2755:0.067000002 3248:0.94499999 3292:0.579 3510:1.034 3638:0.71499997 #
-0.15278612000642735613276101958036 892:0.32499999 994:0.345 2265:2 2755:0.164 3199:0.28299999 #
0.031968566626414007814105389115866 451:2.3800001 2259:0.25799999 2755:0.154 3245:3 3307:1.345 3567:0.84100002 #
-0.053152078013247838761401453666622 273:0.85299999 276:0.42500001 535:1.252 736:4.3590002 1048:0.134 1146:0.82200003 2755:0.16500001 3199:0.26699999 3292:0.29899999 3466:0.41600001 3638:0.58099997 #
-0.15278612000642735613276101958036 90:2.3800001 839:0.102 932:0.38699999 1369:3 1579:0.32600001 2453:0.41999999 2755:0.105 2906:0.32300001 3852:0.75099999 #
0.15278612000642735613276101958036 148:0.211 839:0.139 968:0.65200001 1144:0.43000001 1163:0.55800003 1546:0.70300001 1579:0.33000001 2259:0.17 2755:0.112 3199:0.308 3507:1.183 #
0.088551564716803338184192284643359 556:1.559 644:0.65100002 1519:0.53299999 1792:0.32100001 2646:1.487 2755:0.098999999 3424:1.658 #
0.15278612000642735613276101958036 556:1.559 644:0.70099998 1519:0.55199999 1792:0.25400001 2646:1.342 2755:0.117 3424:1.487 #
0.15278612000642735613276101958036 148:0.46900001 585:0.428 839:0.132 1857:0.156 2755:0.114 #
0.087504598353684071021518775523873 542:4.3590002 1009:0.96899998 1143:0.72799999 1689:3 1704:0.56099999 2259:0.192 3515:0.52100003 3769:0.579 #
0.14082573099165091035089858451101 49:0.28 892:0.36700001 1321:0.317 1951:0.37900001 2453:0.34299999 2665:4.3590002 2755:0.082999997 3698:1.1059999 #
0.0040781820660315791504668681000112 13:4.3590002 576:1.39 761:3 839:0.141 1048:0.244 1778:2 1874:0.62 2156:1.048 2755:0.113 #
0.15222817316398670750565713660762 357:0.42899999 451:1.4579999 839:0.134 932:0.198 1163:1.1059999 1312:0.34999999 1369:0.92299998 1549:1.204 1579:0.89899999 2025:1.244 2223:0.87900001 3185:0.428 3199:0.59399998 #
-0.15278612000642735613276101958036 322:2 451:2.3800001 839:0.133 1340:4.3590002 1344:2.145 1634:0.85399997 1836:1.268 2755:0.12899999 2794:1.732 3199:0.537 3862:2 #
-0.15278612000642735613276101958036 871:0.414 944:1.732 1951:0.301 2259:0.177 2665:3 3567:0.35800001 #
-0.15278612000642735613276101958036 839:0.146 1400:0.255 2510:0.80500001 2712:0.26499999 2755:0.16 2801:0.205 2910:0.27599999 3552:0.278 #
-0.15278612000642735613276101958036 413:1.6440001 828:0.354 1048:0.14300001 1242:0.215 1321:0.39199999 1486:1.312 2442:0.26100001 2558:1.4630001 2755:0.167 3174:0.178 #
0.15278612000642735613276101958036 594:0.26300001 968:0.616 1163:0.56099999 1605:0.583 2755:0.097000003 3199:0.32600001 #
-0.15278612000642735613276101958036 798:0.34 839:0.162 854:0.60000002 929:0.61000001 1579:1.1670001 2259:0.523 2755:0.155 2851:0.35299999 3199:0.597 3479:0.41499999 3515:0.31299999 #
-0.15278612000642735613276101958036 110:1.312 757:0.27500001 865:0.294 1321:0.15700001 1546:1.5549999 1618:0.75400001 2755:0.122 #
-0.15278612000642735613276101958036 110:1.487 757:0.338 865:0.30899999 1321:0.241 1546:1.3839999 1618:1.368 2755:0.184 #
0.15278612000642735613276101958036 435:0.69099998 1048:0.134 2712:0.14399999 2755:0.101 3174:0.336 3466:0.77399999 3484:1.222 #
-0.15278612000642735613276101958036 121:0.824 798:0.708 839:0.1 1144:0.403 1577:1.016 1653:0.79699999 1762:1.342 1812:0.935 2259:0.229 2755:0.148 #
-0.15278612000642735613276101958036 49:0.29899999 91:0.68900001 336:1.219 488:0.77899998 1321:0.278 1422:1.528 1675:0.54000002 1760:4.3590002 2755:0.119 3199:0.32600001 3567:0.47 3717:1.003 #
0.15278612000642735613276101958036 839:0.088 1048:0.32300001 1242:0.30399999 2442:0.336 2755:0.089000002 2758:0.41100001 3005:1.363 3174:0.308 3185:0.70200002 3610:0.47099999 #
0.15278612000642735613276101958036 430:0.597 635:0.91500002 839:0.134 1146:2.145 1242:0.34299999 1890:0.96200001 1898:0.85500002 2289:0.71399999 2442:0.33000001 2755:0.075999998 #
0.0011348704273374489101544604352512 70:1.635 120:1.367 597:1.146 867:2.145 1114:0.88499999 1566:1.045 2597:0.91500002 2755:0.156 2960:1.003 3772:1.473 #
0.071561402945369653738616477767209 127:2.3800001 1048:1.528 1245:3 1282:3 1326:3 2755:0.67500001 3459:3 3465:4.3590002 3846:3 #
-0.15278612000642735613276101958036 127:0.51700002 1048:0.145 1245:2.3800001 1282:2.3800001 1326:2 2755:0.16500001 3459:2.3800001 3465:2.3800001 3846:0.796 #
-0.15278612000642735613276101958036 148:0.18700001 320:1.732 461:0.36199999 547:0.847 839:0.169 967:0.69300002 1146:1.363 1229:1.732 2755:0.142 3044:1.732 #
-0.15278612000642735613276101958036 496:1.4579999 552:0.27900001 585:0.222 839:0.122 1239:0.447 1242:0.21699999 1792:0.42399999 1890:1.732 2442:0.301 2755:0.16 3873:4.3590002 #
-0.15278612000642735613276101958036 644:0.31 732:0.55599999 839:0.114 1890:2 2442:0.31600001 2755:0.145 2758:0.602 2954:2.3800001 3655:3 3839:0.46399999 #
-0.15278612000642735613276101958036 148:0.24699999 320:1.342 461:0.36500001 547:0.405 839:0.059999999 967:0.77100003 1146:1.033 1229:1.342 2755:0.13699999 3044:1.345 #
0.15278612000642735613276101958036 67:2 452:0.61199999 747:0.88099998 839:0.109 1144:0.69300002 1577:0.85799998 1874:0.359 2195:1.6160001 2230:0.70899999 2500:1.064 2755:0.098999999 3199:0.75400001 3852:1.868 #
0.15278612000642735613276101958036 148:0.29899999 839:0.111 968:0.63499999 1144:0.35299999 1163:0.59899998 1546:0.64499998 1579:0.243 2259:0.168 2755:0.1 3199:0.18799999 3507:0.87699997 #
0.15278612000642735613276101958036 148:0.308 839:0.097999997 968:0.57599998 1144:0.315 1163:0.51899999 1546:0.70499998 1579:0.236 2259:0.13 2755:0.11 3199:0.19 3507:0.85299999 #
-0.15278612000642735613276101958036 460:4.3590002 839:0.167 1513:1.204 2755:0.14399999 3610:0.63300002 #
-0.15278612000642735613276101958036 644:0.31999999 839:0.163 1354:0.55800003 2755:0.103 2864:0.32100001 3839:1.3200001 #
-0.127263997368947001653793904552 95:1.487 839:0.155 1009:0.59100002 1078:0.83700001 1358:1.8559999 1764:0.50700003 1874:0.403 2259:0.51599997 2755:0.142 3552:0.40200001 3652:1.732 #
0.15278612000642735613276101958036 1812:0.63499999 2186:0.76099998 2366:1.1059999 3641:1.572 #
0.15278612000642735613276101958036 496:1.4630001 839:0.1 969:1.204 1242:0.20900001 1904:1.194 2442:0.354 2755:0.074000001 #
0.1169961973935119831091711262161 1321:0.22400001 1513:0.85299999 1605:0.51200002 1931:0.736 1951:0.289 2040:0.64499998 2198:0.37900001 2428:2.145 2755:0.071999997 3626:2 #
0.15278612000642735613276101958036 6:0.91299999 542:1.492 1369:0.96600002 1547:1.624 1609:0.36000001 1792:0.19400001 2259:0.266 2387:1.234 2755:0.088 3248:1.432 3292:0.588 3510:1.625 3638:0.875 #
-0.15278612000642735613276101958036 67:1.528 452:0.80900002 585:0.15800001 839:0.059999999 1005:0.37599999 1093:0.71499997 1354:0.375 1579:0.40799999 2428:3 2755:0.13699999 #
-0.15278612000642735613276101958036 70:1.8559999 157:0.48199999 241:0.66500002 839:0.125 992:0.62300003 1048:0.142 2406:2.1340001 2755:0.115 #
-0.15278612000642735613276101958036 839:0.082000002 1792:0.352 1983:1.586 2289:1.225 2755:0.079999998 3174:0.163 3417:3.102 #
-0.099737774979968912836270078514644 70:1.559 112:0.68000001 604:1.225 839:0.106 1144:0.32800001 2198:0.271 2592:1.528 2597:2.3800001 2693:0.42199999 2755:0.1 3586:0.245 3856:0.87699997 #
0.15278612000642735613276101958036 751:0.31999999 865:0.26300001 1144:0.435 1321:0.403 1437:0.66299999 1618:0.65499997 1889:0.66299999 1929:0.713 2090:0.66299999 2201:0.69099998 2259:0.164 2664:0.69800001 2935:0.36000001 #
0.15278612000642735613276101958036 751:0.40700001 865:0.347 1144:0.36300001 1321:0.273 1437:0.63700002 1618:0.73400003 1889:0.63700002 1929:0.74199998 2090:0.63599998 2201:0.498 2259:0.34299999 2664:0.63599998 2935:0.426 #
0.15278612000642735613276101958036 751:0.32800001 865:0.25299999 1144:0.43000001 1321:0.40700001 1437:0.66299999 1618:0.63200003 1889:0.66299999 1929:0.713 2090:0.66299999 2201:0.69099998 2259:0.17 2664:0.704 2935:0.31099999 #
0.15278612000642735613276101958036 751:0.37599999 865:0.34999999 1144:0.37599999 1321:0.28099999 1437:0.55900002 1618:0.70599997 1889:0.62400001 1929:0.67400002 2090:0.61299998 2201:0.61299998 2259:0.36199999 2664:0.62400001 2935:0.38100001 #
0.15278612000642735613276101958036 70:1.117 112:0.78799999 604:1.6109999 839:0.098999999 1144:0.465 2198:0.42500001 2592:1.8559999 2597:1.483 2693:0.82200003 2755:0.092 3586:0.333 3856:0.96200001 #
0.15278612000642735613276101958036 1222:0.62 1499:0.93699998 1855:0.89499998 2375:0.59100002 2676:0.90600002 2755:0.067000002 3199:0.537 3515:0.685 #
-0.15278612000642735613276101958036 751:0.546 865:0.294 1144:0.30500001 1321:0.28200001 1437:1.175 1618:0.89200002 1889:1.175 1929:0.94199997 2090:1.15 2201:1.043 2259:0.245 2664:1.114 2935:0.294 #
0.14238754378329834815453125429485 70:2.145 552:0.182 1048:0.148 1418:0.85900003 2198:0.68699998 2289:0.56800002 2771:0.87099999 2951:0.53799999 #
0.15278612000642735613276101958036 594:0.28299999 968:0.63800001 1163:0.50700003 1605:0.52100003 2755:0.088 3199:0.30500001 #
-0.053613892575882685087584889060963 17:1.921 120:0.69099998 1119:4.3590002 1144:1.018 1212:0.32300001 1821:1.732 2066:1.8559999 2259:0.51599997 2421:0.52200001 2755:0.142 2834:4.3590002 2851:0.33700001 3199:0.58499998 #
0.15278612000642735613276101958036 751:0.463 865:0.347 1144:0.35299999 1321:0.331 1437:0.88099998 1618:0.80299997 1889:0.88999999 1929:0.86500001 2090:0.92199999 2201:0.75300002 2259:0.168 2664:0.62900001 2935:0.43200001 #
-0.15278612000642735613276101958036 148:0.2 839:0.077 1021:0.74599999 1312:1.345 1321:0.35499999 1376:3.513 2684:3.1489999 2755:0.085000001 3199:0.33000001 3271:2.28 3712:2.852 3852:1.906 #
-0.12273565081048457003909391005436 1360:1.572 1609:0.63099998 3641:3 3652:4.3590002 #
-0.15278612000642735613276101958036 644:0.228 1048:0.127 1898:1.183 2755:0.118 3199:0.542 3734:1.128 #
-0.0623665002491720979471701014063 438:2.55 2568:3.1800001 2755:0.13500001 3095:3.1800001 3412:1.222 #
-0.15278612000642735613276101958036 552:0.12800001 562:0.84100002 585:0.17299999 839:0.133 1314:0.40000001 1833:0.27500001 2755:0.111 3487:0.308 3586:0.222 #
-0.15278612000642735613276101958036 839:0.155 1144:1.018 1579:1.1670001 2017:0.199 2209:1.3329999 2259:0.51599997 2500:0.26100001 2755:0.142 3199:0.58499998 3373:0.32499999 3852:1.128 #
0.15278612000642735613276101958036 127:1.033 585:0.24699999 839:0.092 2201:2.2019999 2755:0.075999998 3190:1.359 3266:0.186 #
-0.15278612000642735613276101958036 89:0.192 127:2.8139999 839:0.12 1093:0.38999999 1610:0.56800002 1857:0.25 2755:0.123 3610:0.59100002 #
0.15278612000642735613276101958036 1144:3.1800001 2634:1.363 2755:0.72899997 3373:4.3590002 #
-0.15278612000642735613276101958036 865:0.17299999 1144:1.34 1321:0.25 1818:0.74400002 2259:0.58200002 2755:0.139 2935:0.289 3292:0.43799999 #
-0.15278612000642735613276101958036 1261:1.9220001 1530:1.9220001 2201:1.409 2259:0.479 3662:1.148 #
-0.07418534105691518276692875133449 362:3 1144:1.738 2259:0.58099997 2421:0.51499999 2662:3.1800001 2755:0.125 #
-0.15278612000642735613276101958036 49:0.23 148:0.28600001 1005:0.56400001 1144:1.469 1321:0.25 1951:0.331 2185:0.91299999 2198:0.19599999 2259:0.58600003 2755:0.12800001 3066:1.016 3199:0.653 #
-0.15278612000642735613276101958036 644:0.44600001 1239:0.21799999 1321:0.26899999 1660:2.3800001 2223:0.583 2421:0.47 2755:0.16 2906:0.19400001 3190:0.67400002 3340:1.399 #
0.15278612000642735613276101958036 299:1.658 871:0.46700001 1163:0.66500002 1579:0.28400001 1605:0.60500002 2259:0.134 2755:0.089000002 3199:0.27200001 3241:3 3872:0.611 #
0.09351669362982194255717871556044 347:4.3590002 452:0.82099998 839:0.094999999 1163:0.50599998 1579:0.35600001 1605:0.50599998 2259:0.226 2755:0.079999998 2936:2.3800001 3852:0.86299998 #
0.15278612000642735613276101958036 594:0.259 871:0.398 1163:0.66399997 1579:0.28600001 1605:0.49900001 2259:0.15899999 2755:0.096000001 2979:1.6440001 3199:0.228 #
0.15278612000642735613276101958036 280:0.87699997 552:0.207 839:0.097000003 1048:0.11 2144:0.421 3174:0.213 #
-0.15278612000642735613276101958036 604:0.67199999 644:0.292 839:0.17299999 2017:0.19 2514:0.96899998 2755:0.115 2864:0.34900001 2963:0.46900001 3509:0.59799999 #
-0.05548133772145071723747022929274 839:0.154 917:2.55 932:0.26199999 1032:0.83700001 1048:0.13699999 2755:0.113 2979:1.635 3174:0.175 3567:0.54000002 3781:3 #
-0.15278612000642735613276101958036 49:0.31799999 462:1.494 1445:1.317 2755:0.168 2912:1.455 2953:0.949 #
-0.15278612000642735613276101958036 299:1.635 542:1.09 576:0.55199999 839:0.12899999 1064:0.41600001 1113:0.778 1747:0.671 2259:0.54000002 2755:0.118 #
-0.15278612000642735613276101958036 357:0.72500002 594:0.185 839:0.059999999 1579:0.40799999 1876:1.303 2259:0.23100001 2755:0.13699999 2979:1.216 3199:0.28200001 #
-0.092479973822629388258143023904267 245:1.487 839:0.106 1515:1.8559999 1566:1.921 1674:1.225 1908:2.55 2017:0.243 2230:0.676 2259:0.19 2546:2.55 2755:0.1 3391:0.88099998 #
0.15278612000642735613276101958036 1829:0.41800001 2259:0.215 2375:1.159 2755:0.094999999 3174:0.414 3773:0.38600001 #
-0.15278612000642735613276101958036 49:0.20200001 462:0.98199999 1445:0.87099999 2755:0.155 2912:0.97500002 2953:0.78899997 #
-0.15278612000642735613276101958036 430:0.51599997 477:2.1340001 2755:0.14399999 #
-0.1407141113605195059665931012205 49:0.193 930:3 1048:0.208 1242:0.249 1321:0.2 1400:0.46599999 2755:0.164 3498:0.447 3505:2.55 3552:0.391 #
-0.15278612000642735613276101958036 2755:0.162 3025:0.65100002 3748:1.635 #
-0.11752601055353383008306167312185 148:0.55699998 472:1.556 562:0.84100002 691:0.68300003 839:0.133 849:2.3010001 876:0.86299998 1242:0.59899998 1469:2.2320001 2755:0.111 3883:0.63700002 #
0.15278612000642735613276101958036 627:2.8670001 970:0.303 1242:0.287 1833:0.31600001 2017:0.204 2289:1.175 2755:0.1 #
-0.15278612000642735613276101958036 214:0.52999997 276:0.264 757:0.241 839:0.15000001 865:0.14399999 2259:0.27599999 2451:0.27200001 2458:0.34299999 2755:0.111 3690:0.53500003 #
-0.15278612000642735613276101958036 627:3.924 970:0.30899999 1242:0.28400001 1833:0.31999999 2017:0.20299999 2289:1.248 2755:0.122 #
-0.053733385983103086613876797628109 6:1.351 901:4.3590002 940:4.3590002 1021:0.51200002 1048:0.198 1418:0.74400002 2453:0.46599999 2755:0.134 3416:1.2869999 3660:1.572 #
0.15278612000642735613276101958036 89:0.36899999 587:1.7079999 828:0.23100001 1093:0.59200001 1242:0.192 1932:1.215 2380:1.054 2822:1.238 3515:0.461 #
0.15278612000642735613276101958036 594:0.278 854:0.52499998 2259:0.20100001 2755:0.092 3185:0.67699999 #
0.1286816852771527908139148621558 839:0.109 909:2 1579:0.50400001 1857:0.266 2089:3 2259:0.215 2500:1.131 2755:0.094999999 3034:3 3610:1.003 #
0.15278612000642735613276101958036 585:0.20299999 839:0.097000003 1321:0.24699999 2755:0.079000004 3662:1.077 #
0.053791083055496818898788546903234 930:1.363 1145:0.91500002 1513:0.50700003 1609:0.51099998 2259:0.205 2755:0.088 2998:3 #
0.15278612000642735613276101958036 1018:1.482 1637:1.6160001 2017:0.206 2289:0.62900001 2440:1.133 2747:1.482 3190:0.377 3362:1.482 3883:0.34599999 #
0.051401834834327593537484091257284 127:1.224 428:2.145 809:2.145 839:0.086000003 1048:0.16 1434:1.487 2755:0.081 3072:1.658 3174:0.16500001 3230:1.8559999 3287:2.55 #
0.15278612000642735613276101958036 127:1.4579999 585:0.184 839:0.077 2201:0.57099998 2755:0.075000003 3190:0.301 3266:0.336 #
0.14400950062946160645793725052499 785:1.536 871:0.48100001 1163:0.68199998 1579:0.32100001 1711:1.317 1951:0.25099999 2148:2.325 2259:0.155 2755:0.090999998 3199:0.28400001 3872:0.73000002 #
0.15278612000642735613276101958036 839:0.115 1005:0.38 1679:0.61799997 2458:0.29100001 #
0.15278612000642735613276101958036 1144:0.449 1535:2 1857:0.39199999 1929:0.773 2402:1.3099999 2475:0.84600002 2755:0.112 3552:0.59600002 #
0.15278612000642735613276101958036 381:0.81400001 839:0.089000002 2755:0.059 #
0.15278612000642735613276101958036 427:0.74599999 1904:0.75599998 2755:0.125 2935:0.248 #
0.15278612000642735613276101958036 828:0.40400001 1048:0.082000002 1242:0.252 1418:0.31 2198:0.30899999 2442:0.126 2581:0.41499999 2755:0.125 3414:0.456 #
0.15278612000642735613276101958036 1222:0.56199998 1499:0.63499999 1855:0.63499999 2375:0.59100002 2676:0.63499999 2755:0.061000001 3199:0.30399999 3515:0.28600001 #
0.15278612000642735613276101958036 310:1.1059999 381:0.80299997 430:0.472 445:0.63200003 677:0.73699999 865:0.50400001 1321:0.23 2755:0.156 3647:1.193 #
0.15278612000642735613276101958036 828:0.26199999 1048:0.153 1242:0.163 1418:0.31999999 2198:0.26300001 2442:0.237 2581:0.377 2755:0.061000001 3414:0.36199999 #
0.15278612000642735613276101958036 594:0.19 2226:0.43799999 2755:0.146 2906:0.48100001 #
0.15278612000642735613276101958036 453:1.528 556:1.363 798:0.60100001 839:0.123 1322:1.528 1922:1.183 2755:0.097000003 3174:0.169 3221:1.204 3552:0.53399998 3610:0.428 #
-0.15278612000642735613276101958036 453:1.76 556:1.5599999 798:0.34 839:0.17299999 1322:1.487 1922:1.76 2755:0.171 3174:0.114 3221:1.767 3552:0.359 3610:0.51800001 #
0.15278612000642735613276101958036 157:0.32699999 547:0.396 552:0.255 839:0.082000002 932:0.24699999 1048:0.14 2017:0.23899999 2156:0.66600001 2243:0.396 2442:0.213 3061:0.396 3174:0.25999999 3208:0.36000001 3266:0.229 3586:0.27000001 #
-0.15278612000642735613276101958036 89:0.49200001 828:0.361 941:0.57499999 1242:0.249 2458:0.57700002 2755:0.155 2833:2.793 3585:3.391 #
-0.15278612000642735613276101958036 146:0.66000003 547:0.32600001 828:0.264 839:0.121 876:0.34200001 1000:2 1242:0.212 1535:3.0669999 2750:0.308 2755:0.16500001 3266:0.30500001 #
0.13310443489732512456491519969859 1261:4.3590002 1530:4.3590002 2201:0.5 2259:0.347 3662:1.183 #
-0.15278612000642735613276101958036 89:0.214 839:0.12800001 1674:0.43599999 1833:0.29699999 2712:0.177 2755:0.108 #
0.15278612000642735613276101958036 585:0.23 839:0.094999999 1354:0.384 1415:0.39300001 2449:0.39500001 2755:0.081 2801:0.31099999 3174:0.177 #
-0.15278612000642735613276101958036 1256:1.239 2198:0.62800002 2755:0.16 3222:1.258 3376:1.045 #
-0.15278612000642735613276101958036 1793:4.3590002 1854:4.3590002 2180:4.3590002 2755:0.51999998 3586:2 #
-0.022916345720079941278291002504375 121:0.523 138:1.577 148:0.26699999 1163:1.249 1689:2 1863:2.3800001 2178:2 2616:0.84600002 3484:0.63 3864:1.8559999 #
0.15278612000642735613276101958036 438:3 2568:3 2755:0.090000004 3095:4.3590002 3412:2.3800001 #
0.11684966711660699223429560333898 148:0.289 320:2.053 461:0.39300001 547:0.426 839:0.093999997 967:0.81199998 1146:1.3559999 1229:1.978 2755:0.071999997 3044:1.882 #
0.025432647275452937435380462716239 529:1.482 892:1.635 1961:1.612 1984:2.49 3476:2.3800001 #
0.14146978728706044448060197282757 8:0.55800003 17:0.80299997 481:1.4529999 839:0.096000001 1242:0.15899999 1495:1.212 1904:1.4529999 2105:0.52600002 2442:0.21799999 2755:0.086000003 3567:0.5 3702:0.49900001 #
0.028248980434695977054238014147813 49:0.234 562:0.70099998 1609:0.403 1954:1.627 2660:1.603 2755:0.071999997 #
-0.15278612000642735613276101958036 49:0.16500001 148:0.29699999 276:0.27500001 757:0.154 865:0.19499999 1146:1.4529999 1932:1.4579999 2186:0.34900001 2259:0.18799999 2935:0.242 #
0.15278612000642735613276101958036 585:0.20999999 839:0.1 1354:0.412 1415:0.47299999 2449:0.52499998 2755:0.089000002 2801:0.37099999 3174:0.18799999 #
-0.15278612000642735613276101958036 49:0.12899999 276:0.322 757:0.27200001 865:0.15899999 1321:0.226 2259:0.255 2451:0.55199999 2755:0.13500001 2774:0.55000001 3001:0.37599999 #
0.0062836451400296259445221735973064 1144:2.402 1795:4.164 2238:4.3590002 2406:4.3590002 2755:1.062 2846:3.984 2993:4.3590002 #
0.15278612000642735613276101958036 430:0.62099999 839:0.112 1744:0.972 2755:0.090999998 3853:1.1059999 3873:4.3590002 #
-0.15278612000642735613276101958036 751:0.33899999 865:0.147 1144:0.35299999 1321:0.26100001 1437:0.56300002 1618:0.55299997 1889:0.54900002 1929:0.55000001 2090:0.56800002 2201:0.52399999 2259:0.322 2664:0.33500001 2935:0.214 #
0.15278612000642735613276101958036 49:0.26199999 148:0.229 357:0.93199998 650:1.176 790:0.85399997 1417:0.67699999 1609:0.57700002 2230:0.67500001 2392:0.81 #
0.15278612000642735613276101958036 980:0.98799998 1324:3.55 1792:0.405 2017:0.234 2458:0.26100001 2755:0.077 3266:0.61199999 #
-0.092974171074647393719914134635474 49:0.32600001 751:0.44 757:0.21799999 865:0.235 932:0.31200001 1222:1.528 2755:0.115 2993:4.3590002 3173:2.3800001 #
-0.15278612000642735613276101958036 173:2.3800001 607:1.225 830:1.732 1321:0.20900001 1324:1.311 1898:1.559 2755:0.145 #
-0.15278612000642735613276101958036 980:0.74599999 1324:1.311 2017:0.285 2755:0.145 3266:0.34099999 3406:0.713 #
-0.15278612000642735613276101958036 839:0.163 1048:0.14 1324:1.1440001 1610:0.51099998 1792:0.273 2017:0.22499999 2339:0.99199998 2400:0.87199998 2755:0.103 2864:0.32100001 3232:2 #
-0.15278612000642735613276101958036 587:1.248 1005:0.93400002 1043:1.309 1223:1.312 2198:0.96499997 2458:0.94700003 2755:0.113 3567:1.247 3586:0.60299999 #
0.089266203160247428738394148695079 49:0.34099999 497:0.65499997 791:0.47600001 839:0.303 1021:0.32600001 2114:1.436 2755:0.243 2758:0.61500001 3655:4.3590002 #
0.038895128167951237285748788963247 785:0.80299997 944:4.3590002 1137:0.97600001 1144:0.59799999 1177:1.039 1812:0.63499999 1874:0.41999999 2613:2 2755:0.121 3638:0.68800002 #
0.15278612000642735613276101958036 122:1.794 594:0.22 1741:2.013 1951:0.509 2203:2.013 2336:1.307 2695:0.39199999 2755:0.093000002 3031:1.237 3048:1.938 3831:2.013 #
-0.15278612000642735613276101958036 122:0.73299998 594:0.30000001 1741:0.79400003 1951:0.5 2203:0.79400003 2336:0.63700002 2695:0.40000001 2755:0.123 3031:0.602 3048:0.77499998 3831:0.79400003 #
-0.033518299509549105696937232323762 107:4.3590002 1405:4.3590002 1829:1.363 2145:3 2198:0.81300002 2755:0.167 3638:1.342 #
0.016234972999776879631905757150889 745:2.3069999 758:2.2950001 839:1.085 1567:2.3900001 2259:1.188 2442:1.256 2755:0.86199999 #
-0.15278612000642735613276101958036 148:0.27000001 562:0.204 585:0.112 839:0.146 1675:0.56 2755:0.155 3052:0.384 3484:0.51200002 #
-0.15278612000642735613276101958036 839:0.105 871:0.37599999 1711:1.001 2017:0.24600001 2230:0.648 2500:0.32100001 2755:0.098999999 3001:0.61299998 3034:2.145 3456:1.1059999 #
-0.15278612000642735613276101958036 1704:0.963 1860:0.77499998 1883:1.176 2025:1.146 2167:1.193 2755:0.113 3479:1.006 #
-0.15278612000642735613276101958036 839:0.18700001 932:0.324 1048:0.213 1857:0.28200001 2045:1.02 2442:0.55299997 2755:0.16500001 2786:1.732 2914:2 3456:1.142 3846:1.0930001 #
-0.15278612000642735613276101958036 1704:1.1059999 1860:0.85299999 1883:1.1059999 2025:0.847 2167:1.216 2755:0.079999998 3479:1.204 #
0.15278612000642735613276101958036 790:0.74800003 883:0.56599998 1889:4.3590002 2755:0.063000001 3292:0.285 #
0.15278612000642735613276101958036 594:0.27200001 871:0.412 1163:0.54400003 1579:0.33399999 1605:0.509 2259:0.189 2755:0.090000004 2979:2 3199:0.28299999 #
0.15278612000642735613276101958036 222:0.75400001 460:3 644:0.34200001 839:0.108 876:0.37 1792:0.249 2755:0.108 2864:0.34299999 3772:0.77499998 3839:0.74400002 #
0.15278612000642735613276101958036 148:0.215 2755:0.083999999 3266:0.546 3417:2.0650001 #
-0.15278612000642735613276101958036 751:0.40900001 865:0.227 1144:0.33000001 1321:0.285 1437:0.66600001 1618:0.61900002 1889:0.65200001 1929:0.588 2090:0.66799998 2201:0.61799997 2259:0.26699999 2664:0.54500002 2935:0.24600001 #
-0.15278612000642735613276101958036 75:1.145 293:1.649 753:1.663 839:0.15000001 932:0.244 992:1.082 1048:0.13500001 2259:0.27599999 2442:0.61699998 2755:0.111 3174:0.17399999 3329:1.562 3393:0.89899999 3772:0.85399997 #
0.065088706614087540880397853015893 839:0.64399999 920:2.263 987:1.434 2373:3 2755:0.50599998 3136:3 3251:1.87 3637:2.6029999 #
0.0036352416491537069102857326896583 1609:1.635 1753:4.3590002 2755:0.70999998 3456:4.3590002 #
0.14090328351027980868792610635865 475:4.3590002 2755:0.107 #
-0.15278612000642735613276101958036 594:0.54299998 839:0.163 854:0.727 2089:2.145 2259:0.278 2755:0.103 3148:2.075 3199:0.48699999 #
0.15278612000642735613276101958036 70:1.3099999 157:0.366 241:0.461 552:0.149 595:2 992:0.69700003 1048:0.082000002 2017:0.359 2406:1.4579999 2437:1.528 2442:0.126 2755:0.125 #
-0.15278612000642735613276101958036 70:1.921 148:0.23 552:0.38699999 892:0.47799999 1144:0.26199999 2198:0.412 2755:0.13500001 2906:0.359 #
-0.15278612000642735613276101958036 839:0.127 1048:0.18099999 1549:0.87099999 1857:0.25999999 2506:0.82700002 2755:0.127 2848:0.82200003 2851:0.708 3123:0.81599998 3174:0.191 3552:0.465 #
-0.15278612000642735613276101958036 241:0.58499998 552:0.259 585:0.21699999 839:0.125 1048:0.168 1359:0.72399998 2755:0.122 3772:0.54900002 #
-0.15278612000642735613276101958036 839:0.162 871:0.244 1744:1.571 2259:0.222 2500:0.36899999 2574:1.376 2755:0.133 3199:0.244 3872:1.164 #
0.15278612000642735613276101958036 49:0.33500001 148:0.211 1888:2.174 2259:0.185 2500:0.419 2755:0.13500001 #
0.15278612000642735613276101958036 148:0.22 839:0.13 1021:0.61400002 1312:0.92699999 1321:0.317 1376:1.613 2684:1.543 2755:0.105 3199:0.33700001 3271:1.585 3712:1.4349999 3852:1.349 #
0.15278612000642735613276101958036 745:1.311 758:1.3559999 839:0.162 1567:0.91799998 2259:0.30199999 2442:0.31999999 2755:0.107 #
0.15278612000642735613276101958036 148:0.207 839:0.097000003 1021:0.66399997 1312:0.81900001 1321:0.24699999 1376:1.77 2684:1.77 2755:0.079000004 3199:0.48300001 3271:1.303 3712:1.089 3852:0.82999998 #
0.014646238252183800543360092660805 932:0.88800001 1093:0.86400002 1241:3.1800001 1320:2.55 1857:1.04 2392:1.868 2712:0.523 2750:0.47499999 2755:0.45100001 2758:0.87400001 3610:2.55 #
0.018112763076880627338693940941994 732:4.3590002 1747:2.3800001 2434:3 2612:4.3590002 2755:0.56300002 2851:4.3590002 2954:3.1800001 #
-0.15278612000642735613276101958036 229:1.363 445:0.62099999 1203:1.363 1888:1.6619999 2369:1.249 2932:1.325 3107:0.34 #
-0.15278612000642735613276101958036 120:0.82700002 732:0.55599999 839:0.113 932:0.48800001 1163:0.537 1177:1.449 1546:0.66299999 1605:0.616 2117:1.7130001 2755:0.139 2851:0.76899999 3610:0.46000001 #
-0.15278612000642735613276101958036 120:0.74900001 732:0.421 839:0.089000002 932:0.34999999 1163:0.58399999 1177:1.572 1546:0.625 1605:0.69499999 2117:1.788 2755:0.090000004 2851:0.79100001 3610:0.45199999 #
0.010499633271728604430594877783278 383:0.62300003 1429:2.55 1836:1.216 2259:0.169 2761:4.3590002 3199:0.25999999 3272:4.3590002 3473:4.3590002 3515:0.56999999 3649:1.006 #
0.15278612000642735613276101958036 148:0.32499999 320:1.401 461:0.336 547:0.26199999 839:0.103 967:0.71399999 1146:1.036 1229:1.3609999 2755:0.082999997 3044:1.301 #
0.15278612000642735613276101958036 127:0.99699998 585:0.26899999 839:0.093000002 2201:1.642 2755:0.068000004 3190:1.3099999 3266:0.189 #
0.15111792231801743358055034605059 148:0.35299999 710:0.46799999 1037:1.868 1760:2.3800001 1821:1.022 2421:0.53500003 2755:0.089000002 3266:0.40700001 3515:0.30599999 #
0.15278612000642735613276101958036 2712:0.13699999 2755:0.11 3652:1.8559999 #
-0.020100154611201900139993981042608 839:0.124 1032:0.65100002 1037:4.3590002 1048:0.13699999 1266:2.145 1951:0.54100001 2186:0.29899999 2755:0.115 2910:0.41999999 3174:0.145 3515:0.30899999 #
-0.15278612000642735613276101958036 1609:0.32300001 1821:4.3590002 2259:0.13 2500:0.38100001 2755:0.113 3025:0.80800003 3185:0.73199999 3456:0.648 #
-0.15278612000642735613276101958036 49:0.30199999 493:2.3800001 791:0.866 828:0.30399999 1005:0.491 1021:0.287 1037:2 1144:0.17 1242:0.23100001 1519:0.61400002 1675:0.36899999 1792:0.15800001 2755:0.164 #
-0.15278612000642735613276101958036 594:0.257 2226:1.483 2755:0.101 2906:0.338 #
0.15278612000642735613276101958036 839:0.081 912:1.289 1048:0.14399999 1802:1.3559999 2212:0.94499999 2755:0.075999998 2864:0.25799999 3174:0.152 3663:2.3239999 #
0.15278612000642735613276101958036 839:0.089000002 876:0.199 980:1.069 1048:0.116 1610:0.78299999 2017:0.29899999 2755:0.075000003 2801:0.27500001 3052:0.73299998 3174:0.16 #
0.15278612000642735613276101958036 276:0.47299999 1048:0.118 1792:0.2 2755:0.067000002 2801:0.244 2831:2.55 3174:0.133 3524:0.963 #
0.086273424456581149222245130658848 839:1.885 1451:3 2712:1.865 2755:1.215 3199:1.156 3652:3 #
0.15278612000642735613276101958036 2755:0.45100001 3505:1.732 #
-0.15278612000642735613276101958036 49:0.198 148:0.36199999 357:0.76999998 650:1.732 790:1.176 1417:1.006 1609:0.89600003 2230:0.47400001 2392:2 #
-0.15278612000642735613276101958036 635:0.14399999 691:0.289 970:0.20100001 2755:0.141 2882:0.168 2906:0.171 3883:0.294 #
-0.15278612000642735613276101958036 383:0.49200001 535:0.491 2000:1.4579999 2259:0.28099999 2375:0.73900002 2755:0.134 3553:1.487 #
-0.15278612000642735613276101958036 290:0.44600001 562:0.26800001 732:0.31299999 839:0.133 1223:0.345 1675:0.42300001 2212:0.523 2223:0.39199999 2719:0.61400002 2755:0.12899999 3567:0.35699999 #
0.15278612000642735613276101958036 532:0.93400002 839:0.106 1048:0.134 1239:0.236 2750:0.294 2755:0.13500001 3174:0.215 #
0.081608324398356330009463022179261 148:0.22 222:0.56599998 482:4.3590002 495:1.8559999 563:1.193 830:2.55 839:0.094999999 1579:0.34099999 2206:1.048 2755:0.082999997 #
0.15278612000642735613276101958036 839:0.722 1048:1.266 1792:0.97100002 2755:0.56400001 2960:2.145 #
0.035958595138480521635759856735604 1360:4.3590002 1762:2.3800001 2755:0.73900002 #
0.15278612000642735613276101958036 40:3 798:0.91399997 1609:0.35699999 1653:0.83600003 2755:0.081 3007:1.003 #
-0.054515780973847731416537243376297 482:1.635 1144:0.38499999 1155:1.71 2712:0.30700001 2755:0.101 2864:0.27900001 2935:0.35800001 3130:2.3800001 3163:0.64200002 3486:3 #
-0.15278612000642735613276101958036 76:1.319 222:0.71499997 563:1.056 564:0.41600001 647:0.75 1095:1.334 2539:1.318 #
-0.15278612000642735613276101958036 148:0.20900001 635:0.98299998 791:0.88099998 798:0.509 975:1.043 2017:0.189 2683:4.3590002 2755:0.168 #
-0.15278612000642735613276101958036 482:1.006 535:0.63999999 876:0.301 1143:0.85299999 1186:0.79799998 2755:0.15899999 #
-0.062118064919639753851399177619896 101:0.88 530:0.972 839:0.175 876:0.28299999 1833:0.292 1836:0.83399999 2017:0.167 2249:0.70999998 2755:0.168 3764:0.48800001 #
0.097109812177709392555513545630674 1569:4.3590002 2185:3 2755:0.53899997 #
0.057580754602739682435075252442402 362:2 506:4.3590002 535:0.63499999 932:0.41299999 1747:1.006 2206:1.0930001 2259:0.30899999 2755:0.078000002 2938:1.225 3456:0.88 3769:0.42899999 #
-0.024116405882554037276577219017781 1021:0.271 1441:3 2347:2.3800001 3031:0.69800001 3271:1.528 3641:1.4579999 3717:1.0700001 #
-0.05339293847294481615284311715186 557:4.3590002 882:3 932:0.25299999 1951:0.46200001 2061:0.71899998 2259:0.26699999 2493:4.3590002 2510:1.635 2539:3 2731:1.837 2755:0.111 #
0.15278612000642735613276101958036 148:0.32499999 839:0.103 1144:0.308 1702:0.611 2259:0.126 2755:0.082999997 2947:0.58899999 3199:0.221 #
0.15278612000642735613276101958036 839:0.36399999 1242:0.48300001 2402:0.94700003 2442:0.484 2755:0.294 #
-0.15278612000642735613276101958036 222:0.43599999 839:0.059999999 2017:0.34099999 2176:1.074 2755:0.13699999 3650:0.264 #
0.15278612000642735613276101958036 148:0.329 336:0.92699999 839:0.093999997 1354:0.51800001 2324:1.773 2755:0.072999999 #
-0.15278612000642735613276101958036 49:0.28 839:0.090999998 2755:0.093999997 3190:0.31900001 #
0.15278612000642735613276101958036 594:0.28600001 831:0.44400001 839:0.108 1217:0.44400001 1579:0.38800001 1951:0.31600001 2030:0.44400001 2259:0.32300001 2755:0.079999998 3199:0.44999999 #
-0.15278612000642735613276101958036 562:0.45199999 1422:0.64999998 2259:0.215 2755:0.13 3036:3 3292:0.53500003 3706:2.55 #
-0.15278612000642735613276101958036 839:0.19599999 1143:0.37200001 1344:1.325 2755:0.17399999 3419:2.3800001 3634:1.1670001 3712:0.62400001 3862:1.286 #
-0.15278612000642735613276101958036 241:0.88599998 839:0.106 1048:0.16500001 1098:0.77499998 1792:0.37 2017:0.26699999 2163:1.868 2755:0.146 3174:0.133 #
0.15278612000642735613276101958036 585:0.259 839:0.115 1354:0.29800001 1415:0.461 2449:0.46700001 2755:0.152 2801:0.315 3174:0.105 #
0.15278612000642735613276101958036 967:0.74000001 1067:1.505 1519:0.53600001 1753:1.4630001 2259:0.161 2755:0.075000003 2906:1.273 3567:0.49200001 3717:1.038 #
0.1240536313922164929346436679225 357:0.81599998 430:0.61500001 1021:0.54299998 2755:0.089000002 2759:1.3099999 2895:3 3136:2.3800001 #
0.15278612000642735613276101958036 336:0.72000003 839:0.093000002 1708:0.824 1912:0.537 1983:0.42899999 2549:0.778 2755:0.146 3679:0.70200002 #
-0.15278612000642735613276101958036 357:0.68900001 430:0.44400001 798:0.49200001 1021:0.26800001 1609:0.39700001 1931:1.204 2259:0.28099999 2755:0.16 2851:0.32300001 3136:1.658 3199:0.28200001 #
-0.15278612000642735613276101958036 148:0.51800001 222:0.704 1067:1.4579999 1874:0.30599999 2259:0.184 2712:0.177 2755:0.105 3040:0.40000001 3163:0.51599997 3515:0.51700002 3799:1.312 #
-0.15278612000642735613276101958036 49:0.222 148:0.26199999 594:0.37900001 839:0.15800001 1067:1.085 2422:2 2755:0.155 2906:0.207 3174:0.124 #
0.13105590348987422588677986823313 562:4.3590002 1422:3 2259:1.262 2755:0.477 3036:4.3590002 3292:1.658 3706:4.3590002 #
0.13656352201608373819752273448103 322:2.1340001 451:3 839:0.11 1340:3 1344:1.8559999 1634:1.342 1836:1.286 2099:2.075 2755:0.090999998 2794:2 3199:0.271 3862:3 #
-0.15278612000642735613276101958036 710:0.63999999 798:0.51899999 1048:0.145 1078:0.90899998 1422:1.3099999 1682:0.70700002 2259:0.27000001 2618:1.635 2712:0.33399999 2755:0.16500001 3199:0.27700001 3769:0.5 3808:3 #
-0.15278612000642735613276101958036 148:0.50300002 562:0.273 876:0.28799999 1242:0.266 1634:1.289 2755:0.184 2759:1.4529999 3420:0.72100002 #
0.15278612000642735613276101958036 122:1.487 594:0.25 1741:1.658 1951:0.30199999 2203:1.658 2336:1.577 2695:1.572 2755:0.079000004 3031:1.1059999 3048:1.487 3831:1.658 #
-0.15278612000642735613276101958036 122:0.49000001 594:0.61699998 1741:0.505 1951:0.31200001 2203:0.50999999 2336:0.537 2695:0.375 2755:0.145 3031:0.458 3048:0.50099999 3831:0.51999998 #
-0.15278612000642735613276101958036 122:0.46599999 594:0.51499999 1741:0.48199999 1951:0.42199999 2203:0.45500001 2336:0.41499999 2695:0.47999999 2755:0.102 3031:0.528 3048:0.5 3831:0.48199999 #
0.12279473175671945517350991394778 905:1.528 1021:0.301 1610:0.57200003 2198:0.25299999 2649:0.85399997 2755:0.059999999 3456:0.32300001 #
0.15278612000642735613276101958036 357:0.477 594:0.199 839:0.107 1579:0.37 1876:1.095 2259:0.19599999 2755:0.15099999 2979:1.09 3199:0.354 #
0.15278612000642735613276101958036 839:0.112 1005:0.245 1688:1.02 2017:0.234 3234:1.4630001 3373:0.347 #
-0.049829860354899439822684570344791 552:0.193 732:0.43200001 757:0.29499999 808:2 839:0.093999997 1242:0.308 1417:1.8559999 1803:1.635 2755:0.086999997 3690:0.574 #
-0.15278612000642735613276101958036 148:0.331 383:0.52499998 1144:0.377 1812:0.278 1929:2.2149999 1951:0.31400001 2259:0.215 2515:2.55 2755:0.13 #
-0.15278612000642735613276101958036 49:0.36500001 1144:0.15800001 2089:2.085 2755:0.16500001 3567:0.50999999 #
-0.15278612000642735613276101958036 276:0.37 942:0.366 1792:0.221 2755:0.13699999 2906:0.361 3160:1.5779999 #
-0.15278612000642735613276101958036 49:0.27399999 148:0.20299999 357:0.68900001 650:0.89899999 790:0.484 1417:0.63499999 1609:0.39700001 2230:0.93199998 2392:0.773 #
0.15278612000642735613276101958036 980:1.505 1324:2.3800001 1792:0.33000001 2017:0.278 2458:0.34 2755:0.086999997 3266:0.41299999 #
0.15278612000642735613276101958036 122:1.788 594:0.23999999 1741:1.837 1951:0.26100001 2203:1.837 2336:0.59299999 2695:0.74199998 2755:0.107 3031:1.4630001 3048:1.286 3831:1.837 #
0.035188118669071420663296834163702 672:4.3590002 1440:2 1821:4.3590002 2161:4.3590002 2259:1.8559999 2755:0.671 3007:2.3800001 #
-0.15278612000642735613276101958036 122:0.73299998 594:0.30000001 1741:0.79400003 1951:0.5 2203:0.79400003 2336:0.63700002 2695:0.40000001 2755:0.123 3031:0.602 3048:0.77499998 3831:0.79400003 #
-0.15278612000642735613276101958036 122:0.43599999 594:0.63499999 1741:0.45100001 1951:0.26899999 2203:0.45100001 2336:0.43099999 2695:0.36300001 2755:0.12899999 3031:0.46599999 3048:0.454 3831:0.48500001 #
0.15278612000642735613276101958036 49:0.44800001 146:1.0930001 438:3 839:0.112 1857:0.273 2755:0.092 #
0.054838608142104346143685944525714 775:0.79100001 798:0.60799998 839:0.082000002 1321:0.235 1398:1.222 1563:3.1800001 1605:0.42699999 1760:2.145 1951:0.38100001 2040:0.67500001 2755:0.061000001 3758:2.3800001 #
0.15278612000642735613276101958036 6:0.56099999 542:0.70200002 1369:0.53799999 1547:0.72500002 1609:0.25299999 1792:0.15099999 2259:0.27700001 2387:0.736 2755:0.057 3248:0.713 3292:0.56699997 3510:0.72500002 3638:0.484 #
0.15278612000642735613276101958036 122:2.4749999 594:0.223 1741:3.0339999 1951:0.34 2203:3.0339999 2336:1.438 2695:0.38600001 2755:0.056000002 3031:1.25 3048:2.8239999 3831:3.0339999 #
-0.15278612000642735613276101958036 980:0.65499997 1324:0.93199998 2017:0.20200001 2755:0.171 3266:0.359 3406:1.123 3593:0.815 #
-0.15278612000642735613276101958036 932:0.26199999 980:1.4630001 1048:0.26699999 1078:0.85399997 2517:1.454 2755:0.12800001 3174:0.27200001 3371:1.002 3515:0.62400001 3773:1.6440001 #
-0.1192852763045256919705039422297 1048:0.126 1563:1.732 1579:1.228 2249:0.91299999 2712:0.23899999 2755:0.122 2842:1.434 3174:0.13 3552:0.42500001 #
0.15278612000642735613276101958036 148:0.215 2755:0.083999999 3266:0.546 3417:2.0650001 #
0.15278612000642735613276101958036 562:0.30500001 757:0.19499999 854:2.256 1312:0.75199997 1609:0.31600001 1760:1.8559999 2114:0.71499997 2259:0.197 2340:1.025 2755:0.061000001 2935:0.35699999 2947:0.65600002 3713:2 #
0.13149032643994448821267440052907 839:0.097000003 876:0.22400001 1610:0.60799998 1699:2.55 2750:0.221 2755:0.075000003 3185:0.396 3772:0.70999998 #
-0.15278612000642735613276101958036 562:0.78500003 656:1.398 1242:0.551 2755:0.109 #
0.15278612000642735613276101958036 585:0.20200001 839:0.086000003 1354:0.359 1415:0.45699999 2449:0.486 2755:0.061000001 2801:0.31900001 3174:0.23199999 #
-0.15278612000642735613276101958036 670:1.436 1032:0.667 1157:1.434 1223:0.58200002 1668:1.436 2376:1.436 2402:0.98199999 2425:0.77600002 2645:1.436 2755:0.125 3170:1.069 #
-0.15278612000642735613276101958036 839:0.15800001 1005:0.484 1242:0.249 1466:1.081 1904:1.447 2442:0.14 2458:0.57700002 2755:0.155 3163:0.54500002 3650:0.50599998 #
-0.15278612000642735613276101958036 552:0.27700001 564:0.5 752:1.045 1320:0.71700001 2755:0.1 2801:0.426 3242:0.69 3266:0.498 3586:0.245 #
0.15278612000642735613276101958036 148:0.197 472:0.63099998 562:0.329 691:0.61500001 839:0.109 849:0.74199998 876:0.35600001 1242:0.20900001 1469:0.80599999 2755:0.1 3883:0.588 #
-0.15278612000642735613276101958036 89:0.45100001 497:0.94499999 587:1.021 2017:0.17900001 2755:0.13500001 3266:0.33899999 3417:0.82300001 #
-0.15278612000642735613276101958036 1144:1.112 2755:0.139 3713:4.3590002 #
-0.15278612000642735613276101958036 49:0.211 174:1.3099999 430:0.94099998 732:0.47600001 828:0.48199999 2017:0.266 2833:0.49900001 3585:0.49900001 #
-0.15278612000642735613276101958036 148:0.329 472:0.45199999 562:0.44400001 691:0.33399999 839:0.156 849:0.56800002 876:0.403 1242:0.285 1469:0.57599998 2755:0.133 3883:0.336 #
0.15278612000642735613276101958036 839:0.13 1005:0.41600001 1242:0.28099999 1466:3 1904:0.90799999 2442:0.244 2458:0.34999999 2755:0.105 3163:0.79699999 3650:0.81400001 #
0.15278612000642735613276101958036 49:0.301 148:0.20999999 607:0.62 732:0.574 839:0.081 876:0.28200001 2017:0.204 2112:0.671 #
-0.15278612000642735613276101958036 839:0.125 1005:0.71499997 1242:0.215 1466:3 1904:0.93699998 2442:0.26100001 2458:0.62099999 2755:0.167 3163:0.66000003 3650:0.65600002 #
-0.14969867946890194621012426523521 839:0.15800001 1005:0.484 1242:0.249 1466:1.081 1904:1.447 2442:0.14 2458:0.57700002 2755:0.155 3163:0.54500002 3650:0.50599998 #
-0.15278612000642735613276101958036 594:0.43399999 854:1.461 1021:0.31099999 1792:0.16500001 1951:0.36500001 2040:0.57599998 2114:0.824 2198:0.72600001 2259:0.27000001 2755:0.16500001 #
0.15278612000642735613276101958036 49:0.234 1513:0.85299999 1951:0.289 2755:0.071999997 3335:1.072 3515:0.28600001 #
-0.15278612000642735613276101958036 967:0.76300001 2755:0.138 3007:1.183 3292:0.88 #
-0.15278612000642735613276101958036 1048:0.17900001 1212:0.54799998 2755:0.142 3007:1.4579999 3174:0.17299999 #
-0.0066037019549189945877287755138241 165:1.183 430:1.378 790:1.1059999 883:0.847 1951:0.42399999 2040:0.58099997 2210:3 2259:0.182 2453:0.722 2755:0.122 #
0.15278612000642735613276101958036 828:0.40400001 1048:0.082000002 1242:0.252 1418:0.31 2198:0.30899999 2442:0.126 2581:0.41499999 2755:0.125 3414:0.456 #
-0.15278612000642735613276101958036 828:0.22400001 1048:0.134 1242:0.119 1418:0.94199997 2198:0.34200001 2442:0.90499997 2581:1.026 2755:0.108 3414:0.935 #
-0.15278612000642735613276101958036 1222:0.61400002 1499:1.0039999 1855:1.0039999 2375:0.75700003 2676:0.95599997 2755:0.147 3199:0.34999999 3515:0.28999999 #
-0.099264255578333362994847277605004 1327:1.342 1418:1.482 1802:1.658 2442:0.296 2581:1.612 3163:0.58499998 3586:0.27200001 3764:0.995 #
0.15278612000642735613276101958036 745:1.311 1048:0.53399998 1549:1.436 1898:0.93699998 1951:0.69700003 2259:0.30199999 2755:0.107 3586:0.34999999 #
0.15278612000642735613276101958036 618:1.7589999 839:0.115 1242:0.565 1407:1.505 1413:1.749 1625:1.057 1904:0.91299999 2442:0.15000001 2755:0.093000002 2938:1.4680001 #
0.15278612000642735613276101958036 89:0.34099999 439:1.071 1242:0.565 1904:0.91299999 2017:0.223 2442:0.15000001 2509:1.071 2755:0.093000002 3266:0.23800001 #
-0.15278612000642735613276101958036 618:1.643 839:0.133 1242:0.59899998 1407:1.3890001 1413:1.635 1625:0.99599999 1904:0.87300003 2442:0.154 2755:0.111 2938:1.3660001 #
-0.15278612000642735613276101958036 49:0.18099999 148:0.336 370:0.41800001 562:0.50599998 751:0.303 757:0.15899999 839:0.12800001 1432:0.42899999 1951:0.377 2458:0.61199999 #
-0.15278612000642735613276101958036 1222:0.48800001 1499:0.824 1855:0.824 2375:0.61199999 2676:0.773 2755:0.141 3199:0.36399999 3515:0.29899999 #
-0.15278612000642735613276101958036 89:0.25400001 439:0.889 1242:0.551 1904:0.76300001 2017:0.223 2442:0.15700001 2509:0.889 2755:0.109 3266:0.226 #
-0.15278612000642735613276101958036 89:0.24699999 439:0.69800001 1242:0.213 1904:0.53799999 2017:0.285 2442:0.54100001 2509:0.69800001 2755:0.145 3266:0.34099999 #
0.15278612000642735613276101958036 828:0.222 1048:0.127 1242:0.19400001 1418:0.77499998 2198:1.117 2442:0.28099999 2581:0.972 2755:0.111 3414:0.91500002 #
0.15278612000642735613276101958036 828:0.27000001 1048:0.105 1242:0.208 1418:0.611 2198:0.398 2442:0.17299999 2581:1.133 2755:0.081 3414:1.132 #
0.15278612000642735613276101958036 618:2.3770001 839:0.068999998 1242:0.27700001 1407:1.948 1413:2.3770001 1625:1.2180001 1904:0.96700001 2442:0.149 2755:0.056000002 2938:1.711 #
-0.15278612000642735613276101958036 828:0.34200001 1048:0.13600001 1242:0.169 1418:0.78600001 2198:0.42699999 2442:0.57999998 2581:0.86199999 2755:0.113 3414:1.091 #
0.15278612000642735613276101958036 89:0.36300001 439:1.569 1242:0.23199999 1904:0.79000002 2017:0.249 2442:0.142 2509:1.569 2755:0.067000002 3266:0.24600001 #
-0.15278612000642735613276101958036 618:1.285 839:0.12800001 1242:0.52700001 1407:1.0599999 1413:1.281 1625:0.78799999 1904:0.74199998 2442:0.155 2755:0.105 2938:1.137 #
-0.15278612000642735613276101958036 618:1.219 839:0.125 1242:0.49900001 1407:0.95700002 1413:1.216 1625:0.73500001 1904:0.68599999 2442:0.16 2755:0.108 2938:1.119 #
-0.15278612000642735613276101958036 828:0.34299999 1048:0.14300001 1242:0.185 1418:0.759 2198:0.45100001 2442:0.55000001 2581:0.81999999 2755:0.119 3414:1.028 #
0.15278612000642735613276101958036 148:0.211 320:1.027 461:0.38100001 547:0.46000001 839:0.083999999 967:0.52200001 1146:0.82499999 1229:0.99800003 2755:0.063000001 3044:1.003 #
0.15278612000642735613276101958036 148:0.211 320:0.97600001 461:0.38699999 547:0.37200001 839:0.106 967:0.54400003 1146:0.81 1229:0.97600001 2755:0.13500001 3044:0.986 #
0.15278612000642735613276101958036 828:0.61799997 1048:0.168 1242:0.215 1418:0.44 2198:0.61400002 2442:0.28099999 2581:1.635 2755:0.108 3414:1.658 #
0.15278612000642735613276101958036 828:0.29499999 1048:0.13500001 1242:0.26300001 1418:0.58999997 2198:0.37900001 2442:0.22499999 2581:1.9119999 2755:0.089000002 3414:1.853 #
0.15278612000642735613276101958036 618:2 839:0.082999997 1242:0.41800001 1407:1.696 1413:2 1625:1.148 1904:0.94700003 2442:0.148 2755:0.056000002 2938:1.543 #
-0.15278612000642735613276101958036 618:1.408 839:0.12800001 1242:0.551 1407:1.165 1413:1.403 1625:0.85600001 1904:0.76300001 2442:0.15700001 2755:0.109 2938:1.227 #
0.15278612000642735613276101958036 148:0.289 472:0.35800001 562:0.23199999 691:0.31600001 839:0.111 849:0.56300002 876:0.396 1242:0.176 1469:0.59100002 2755:0.107 3883:0.35699999 #
0.15278612000642735613276101958036 148:0.23 472:0.50700003 562:0.31 691:0.5 839:0.125 849:0.52600002 876:0.46700001 1242:0.28799999 1469:0.60299999 2755:0.094999999 3883:0.39700001 #
0.15278612000642735613276101958036 148:0.308 472:0.352 562:0.233 691:0.317 839:0.097999997 849:0.59200001 876:0.493 1242:0.184 1469:0.58700001 2755:0.11 3883:0.278 #
0.15278612000642735613276101958036 618:2.793 839:0.116 1242:0.182 1407:0.83099997 1413:2.793 1625:0.59899998 1904:1.505 2442:0.303 2755:0.111 2938:2.263 #
0.15278612000642735613276101958036 552:0.207 562:0.23199999 585:0.237 839:0.097000003 1314:0.241 1833:0.205 2755:0.075000003 3487:0.219 3586:0.19 3770:0.33500001 #
0.15278612000642735613276101958036 408:1.0880001 1093:0.52899998 1490:1.122 1577:0.31200001 1749:1.0599999 1909:1.028 2195:1.045 2755:0.082999997 3199:0.221 #
0.11626292856438760758841510778439 653:1.4579999 2755:0.45100001 3198:1.732 3266:0.377 3576:1.528 #
0.049331740505118480688562243585693 597:4.3590002 1032:4.3590002 2259:1.732 2731:4.3590002 2755:1.207 2758:4.3590002 2969:4.3590002 3586:3 #
0.15278612000642735613276101958036 241:0.74599999 552:0.22499999 585:0.23800001 839:0.082000002 1048:0.153 1359:0.472 2755:0.061000001 3772:1.1569999 #
0.15278612000642735613276101958036 1144:1.528 1876:2.145 1951:2.145 2421:2.145 2755:0.54299998 3634:2.145 #
0.089112938245047942920074035555444 1294:2.55 1312:1.044 1836:1.77 2068:3 2259:2.2309999 2425:1.4630001 #
-0.053721423363745704482319354156061 2259:0.50300002 2755:0.18000001 3610:1.158 #
0.15278612000642735613276101958036 1321:1.126 1579:1.084 2259:1.471 2755:1.048 3199:0.85100001 #
0.15278612000642735613276101958036 148:0.23 472:0.50700003 562:0.31 691:0.5 839:0.125 849:0.52600002 876:0.46700001 1242:0.28799999 1469:0.60299999 2755:0.094999999 3883:0.39700001 #
0.15278612000642735613276101958036 148:0.193 472:0.45500001 562:0.30599999 691:0.63300002 839:0.098999999 849:0.70999998 876:0.338 1242:0.29699999 1469:0.80900002 2755:0.093000002 3883:0.42899999 #
0.15278612000642735613276101958036 1212:0.59500003 1609:0.78399998 2259:0.25 2755:0.071000002 3199:0.96200001 #
-0.15278612000642735613276101958036 148:0.29699999 472:0.377 562:0.42500001 691:0.26300001 839:0.18700001 849:0.41999999 876:0.31600001 1242:0.27500001 1469:0.435 2755:0.16500001 3883:0.264 #
0.15278612000642735613276101958036 1704:1.1440001 1860:0.597 1883:1.211 2025:1.1 2167:1.224 2755:0.074000001 3479:1.098 #
-0.15278612000642735613276101958036 148:0.208 320:0.949 461:0.35499999 547:0.322 839:0.12899999 967:0.49900001 1146:0.75800002 1229:0.949 2755:0.16500001 3044:0.972 #
-0.15278612000642735613276101958036 438:2.55 2568:2.55 2755:0.14399999 3095:2.55 3412:1.075 #
0.15278612000642735613276101958036 942:0.43700001 1321:0.296 1792:0.214 2259:0.125 2755:0.121 3312:1.0190001 3769:0.35100001 3773:0.37200001 #
0.0059427906406158198179823237694563 357:1.0930001 694:3 1077:3 1757:3 2851:0.94 3025:0.64600003 3060:2.145 3199:0.48500001 3373:2.075 3577:0.67299998 #
-0.15278612000642735613276101958036 162:3 357:0.76499999 1144:0.48199999 1313:3 1653:0.66000003 2612:1.003 2755:0.122 2947:1.635 3074:3 3567:0.52600002 3803:3 #
0.14421889170356858023147594849434 594:0.50800002 839:0.086000003 854:2.256 2089:4.1199999 2259:0.197 2755:0.061000001 3148:4.237 3199:0.30500001 #
-0.15278612000642735613276101958036 2539:2.3800001 2755:0.171 #
-0.15278612000642735613276101958036 594:0.43399999 854:1.33 1021:0.31099999 1792:0.16 2114:0.82800001 2198:0.704 2259:0.271 2755:0.168 #
-0.12145850069699222484320699777527 699:1.363 712:4.3590002 876:0.45500001 1321:0.31400001 1753:4.3590002 1951:0.301 2748:1.868 2755:0.093999997 3025:0.77700001 #
0.13007072652260762146703143571358 2348:4.3590002 2755:0.48100001 3163:4.3590002 3764:3 #
0.15278612000642735613276101958036 89:0.31200001 828:0.40599999 2017:0.33899999 2755:0.108 2833:1.092 3585:1.09 #
0.15278612000642735613276101958036 290:3.072 751:1.8559999 757:0.249 865:0.50400001 1321:0.23 2169:3.8050001 2755:0.156 #
-0.15278612000642735613276101958036 1144:0.354 1513:1.6160001 1890:1.016 2348:2.3800001 2755:0.102 3048:0.5 3292:0.59799999 3406:0.634 3638:0.59500003 #
-0.040215351084153597160941728816397 180:1.528 367:4.3590002 647:0.824 785:0.74199998 929:0.667 1064:0.412 1485:4.3590002 2212:0.80199999 2712:0.30399999 2755:0.12800001 2886:4.3590002 #
-0.15278612000642735613276101958036 876:0.48199999 892:0.347 1321:0.23999999 1513:1.716 1579:0.41100001 2259:0.234 2755:0.141 3163:0.51300001 3185:0.324 3827:1.732 #
-0.15278612000642735613276101958036 122:1.4579999 594:0.204 1741:1.4579999 1951:0.26800001 2203:1.4579999 2336:0.41600001 2695:1.133 2755:0.111 3031:1.342 3048:1.3099999 3831:1.4579999 #
0.15278612000642735613276101958036 791:0.51800001 839:0.36399999 1021:0.35499999 1242:0.48300001 1557:0.52200001 1646:1.256 2442:0.484 2755:0.294 3045:1.159 3586:0.51200002 #
0.049015980811769215008677491596245 120:0.99199998 732:0.55299997 839:0.097999997 932:0.45899999 1163:0.51899999 1177:2.191 1546:0.70499998 1605:0.648 2117:3.0869999 2755:0.11 2851:0.75 3610:0.43900001 #
0.10470388753272474868794006397366 1212:0.514 1645:1.635 2515:4.3590002 2712:0.32300001 2755:0.098999999 3626:2 #
0.15278612000642735613276101958036 876:0.396 1005:1.416 1242:0.176 2442:0.30500001 2755:0.107 2812:1.528 3025:0.91600001 #
0.15278612000642735613276101958036 120:0.80299997 732:0.58700001 839:0.109 932:0.28400001 1163:0.5 1177:1.635 1546:0.58700001 1605:0.67500001 2117:1.732 2755:0.1 2851:0.89300001 3610:0.43700001 #
-0.15278612000642735613276101958036 89:0.28200001 439:1.559 1242:0.119 1904:0.67500001 2017:0.17900001 2442:0.90499997 2509:1.559 2755:0.108 3266:0.35299999 #
-0.15278612000642735613276101958036 148:0.18000001 839:0.075999998 1021:0.56599998 1312:0.73199999 1321:0.31099999 1376:3.55 2684:2.4820001 2755:0.086000003 3199:0.26100001 3271:1.342 3712:2.1340001 3852:1.099 #
-0.15278612000642735613276101958036 148:0.542 276:0.29899999 732:0.50700003 839:0.12800001 1653:0.57300001 2259:0.26100001 2458:0.347 2755:0.109 2963:0.29499999 3247:2.6029999 #
0.15278612000642735613276101958036 670:2 1032:0.58999997 1157:1.4579999 1223:0.391 1668:2 2376:1.732 2402:0.58700001 2425:0.76999998 2645:1.528 2755:0.125 3170:0.93099999 #
0.096197101975706328369497555286216 49:0.43799999 112:0.92199999 752:4.3590002 839:0.111 1320:2 2017:0.55800003 2458:0.34799999 2801:0.76200002 2963:0.82800001 #
0.029825255389828084912062777789288 95:1.8559999 594:0.37799999 690:4.3590002 883:1.635 1144:0.34299999 1519:0.69700003 1803:0.713 2601:1.658 2695:0.92699999 2906:0.39700001 3484:1.635 3553:0.63200003 3864:3 #
0.15278612000642735613276101958036 552:0.66000003 839:0.106 2683:4.3590002 2693:1.048 2755:0.089000002 3190:0.583 #
0.15278612000642735613276101958036 148:0.40099999 472:1.502 562:0.493 691:0.41499999 839:0.082999997 849:3.7449999 876:0.55000001 1242:0.41800001 1469:3.4289999 2755:0.056000002 3883:0.34999999 #
-0.15278612000642735613276101958036 148:0.55699998 472:1.556 562:0.84100002 691:0.68300003 839:0.133 849:2.3010001 876:0.86299998 1242:0.59899998 1469:2.2320001 2755:0.111 3883:0.63700002 #
0.10215016263180198841098444972886 49:0.273 148:0.31600001 757:0.69499999 797:1.171 1634:1.214 3629:1.102 #
0.15278612000642735613276101958036 710:0.46799999 798:0.345 1048:0.13500001 1078:0.94499999 1422:1.006 1682:0.84799999 2259:0.14300001 2618:1.363 2712:0.15800001 2755:0.089000002 3199:0.419 3769:0.48899999 3808:1.732 #
0.15278612000642735613276101958036 839:1.492 1890:1.77 2442:1.605 2755:1.154 #
-0.15278612000642735613276101958036 276:0.42399999 798:0.51899999 804:1.6440001 1242:0.22499999 1792:0.16500001 2259:0.27000001 2442:0.164 2755:0.16500001 3508:0.65200001 #
-0.15278612000642735613276101958036 148:0.34 185:1.651 839:0.14300001 1005:0.54400003 2755:0.126 2758:1.0880001 #
-0.15278612000642735613276101958036 798:0.44600001 839:0.17200001 854:0.57800001 929:0.53299999 1579:0.403 2259:0.198 2755:0.15099999 2851:0.28999999 3199:0.68699998 3479:0.49399999 3515:0.375 #
-0.15278612000642735613276101958036 1261:2.3800001 1530:2.145 2755:0.127 3266:0.41299999 3360:0.81300002 #
-0.15278612000642735613276101958036 798:0.38499999 839:0.14300001 854:0.47799999 929:0.53600001 1579:0.35600001 2259:0.211 2755:0.126 2851:0.303 3199:0.745 3479:0.505 3515:0.36199999 #
0.023405922124201301165458133368702 47:4.3590002 293:4.3590002 1144:0.26699999 1369:0.63800001 1429:1.6440001 1671:0.85399997 1951:0.34099999 2223:0.47 2445:3 2532:1.732 2755:0.055 2938:1.02 2953:1.183 #
0.071552083788830739274899883639591 493:4.3590002 839:0.123 876:0.222 1242:0.289 2259:0.138 2384:4.3590002 2755:0.098999999 3266:0.45899999 #
0.026273317092760688912234101621834 197:2.075 550:1.077 839:0.108 2755:0.079999998 2797:0.68800002 2864:0.294 2982:1.761 #
-0.15278612000642735613276101958036 1557:1.658 2017:0.163 2693:0.60000002 2755:0.162 2963:0.479 3412:0.972 #
-0.049430771737904471985203258554975 156:2.145 168:4.3590002 404:1.696 926:4.3590002 1021:1.705 1048:1.357 1197:2 1851:4.3590002 2755:1.061 3213:2.187 #
-0.15278612000642735613276101958036 585:0.245 839:0.162 1239:0.40400001 2099:2.1340001 2755:0.127 #
-0.15278612000642735613276101958036 932:0.33399999 1048:0.131 1223:0.366 2156:0.699 2289:0.85299999 2750:0.31099999 2755:0.155 2951:0.53799999 3174:0.11 3263:3 #
-0.15278612000642735613276101958036 357:0.71899998 647:0.80299997 932:0.32300001 992:0.98799998 1021:0.52200001 1046:3 1143:0.449 2259:0.257 2532:1.635 2755:0.12 3797:2.55 #
0.15278612000642735613276101958036 148:0.31600001 222:1.342 1067:2.3410001 1874:1.284 2259:0.13 2712:0.31799999 2755:0.068000004 3040:0.61799997 3163:1.062 3515:0.333 3799:1.809 #
0.12246793196540046999576389907816 173:2.3800001 552:0.32300001 675:4.3590002 1005:1.15 2755:0.11 3114:1.345 3190:0.377 #
0.15278612000642735613276101958036 383:0.41600001 585:0.23 1321:0.29100001 2755:0.081 3002:0.50999999 3292:0.35499999 3515:0.28799999 3728:0.428 #
0.10217201982410475946672079317068 839:0.092 932:0.249 1048:0.113 1242:0.12800001 2442:0.177 2755:0.075999998 2914:1.972 2996:0.403 3368:2.075 3456:0.36700001 3547:0.80599999 #
0.15278612000642735613276101958036 229:2.55 445:1.658 1203:2.145 1888:1.434 2369:2.55 2932:2.145 3107:1.068 #
-0.089482511830443006717317189213645 552:0.223 1143:0.63800001 1166:3 1212:0.56900001 1762:0.62800002 1874:0.5 2248:4.3590002 2259:0.292 2453:0.74599999 2755:0.102 3515:0.48199999 3556:2.49 #
-0.15278612000642735613276101958036 710:2 1093:0.713 2712:0.29699999 2755:0.086999997 3769:0.537 #
-0.095376384310075931760586342988972 395:2 839:0.199 883:1.159 1876:3.1800001 2755:0.184 3552:0.35499999 #
0.15278612000642735613276101958036 397:1.183 839:0.111 1792:0.192 1922:2 2289:0.48899999 2755:0.072999999 3420:0.73799998 #
0.15278612000642735613276101958036 461:0.51899999 932:0.23199999 1048:0.118 1802:0.95300001 2156:0.78899997 2926:1.135 3174:0.134 3567:0.44999999 #
0.081191771260725562053828241459996 49:0.317 472:0.31400001 828:0.222 839:0.104 1216:1.262 1755:2.145 2001:1.351 2431:1.1059999 2442:0.28099999 2755:0.111 2842:2.145 #
0.15278612000642735613276101958036 49:0.134 1005:0.41299999 1087:1.4960001 2017:0.34099999 2230:0.47999999 2685:1.526 2982:1.526 3567:0.93199998 3839:1.5 #
-0.15278612000642735613276101958036 148:0.55699998 472:1.556 562:0.84100002 691:0.68300003 839:0.133 849:2.3010001 876:0.86299998 1242:0.59899998 1469:2.2320001 2755:0.111 3883:0.63700002 #
0.15278612000642735613276101958036 395:1.635 883:1.204 892:0.34299999 942:0.44999999 1603:1.732 1803:0.64600003 2187:2.075 2755:0.11 3712:0.671 3828:0.579 #
0.086721478136811094850067149764072 276:0.36500001 782:3 1876:1.342 2517:1.097 2625:2.3800001 2755:0.052000001 3764:0.65799999 #
0.01463288040971464504247379068147 903:2.3800001 932:1.219 1258:2.3800001 2339:2.3800001 2453:2 2642:2.3800001 2924:2.3800001 3103:2.3800001 3176:2.3800001 3493:2.3800001 3630:2.3800001 #
0.15278612000642735613276101958036 49:0.368 1321:0.233 2453:0.79500002 3093:1.017 3406:0.87900001 #
0.15278612000642735613276101958036 839:0.111 917:2.3800001 1609:0.759 2755:0.068000004 3761:1.635 #
-0.15278612000642735613276101958036 49:0.336 550:1.346 784:1.022 839:0.118 1321:0.289 2755:0.121 3190:0.36500001 #
-0.15278612000642735613276101958036 1:1.482 855:1.216 2017:0.189 2213:1.482 2340:1.133 2755:0.168 2850:1.482 3025:0.81900001 3114:1.705 #
-0.02651130801133633890787066889061 15:4.3590002 475:1.732 1590:4.3590002 1951:0.27700001 2259:0.55800003 2421:0.53600001 2542:4.3590002 2755:0.139 #
-0.15278612000642735613276101958036 381:1.472 839:0.068000004 2755:0.141 #
0.15278612000642735613276101958036 148:0.234 472:0.62800002 562:0.257 691:0.59600002 839:0.113 849:0.77899998 876:0.74699998 1242:0.211 1469:0.83499998 2755:0.086999997 3883:0.45199999 #
0.15278612000642735613276101958036 148:0.197 472:0.62 562:0.331 691:0.57300001 839:0.114 849:0.71499997 876:0.34400001 1242:0.21799999 1469:0.80599999 2755:0.106 3883:0.60299999 #
0.15278612000642735613276101958036 148:0.22400001 472:0.514 562:0.28400001 691:0.65899998 839:0.096000001 849:0.69800001 876:0.972 1242:0.235 1469:0.76999998 2755:0.075000003 3883:0.50099999 #
0.11474578423771743251879939862192 876:0.37 1405:3 2755:0.108 3735:3 #
-0.15278612000642735613276101958036 148:0.55699998 472:1.556 562:0.84100002 691:0.68300003 839:0.133 849:2.3010001 876:0.86299998 1242:0.59899998 1469:2.2320001 2755:0.111 3883:0.63700002 #
0.15204480035113848712668982443574 839:0.109 855:2.352 1048:0.148 1093:0.49900001 2458:0.34900001 2755:0.098999999 3174:0.42500001 #
0.15278612000642735613276101958036 1818:0.31900001 1821:1.8559999 1951:0.384 2186:0.30399999 2259:0.17299999 2755:0.146 3649:0.935 3776:4.3590002 #
0.15278612000642735613276101958036 430:0.43000001 932:0.213 1609:0.42399999 1744:1.732 2428:2.1340001 2755:0.085000001 2759:0.98799998 3556:1.4579999 #
0.15278612000642735613276101958036 1321:0.26800001 1358:1.3099999 1682:1.8559999 2186:1.085 2755:0.175 3376:0.90499997 3515:0.33000001 #
0.15278612000642735613276101958036 49:0.29300001 794:0.484 2755:0.093999997 3168:3 #
-0.15278612000642735613276101958036 49:0.19599999 1048:0.19400001 1137:1.204 2001:0.949 2431:0.52899998 2612:1.016 2755:0.184 2790:1.225 3031:0.34 3174:0.148 #
-0.15278612000642735613276101958036 322:2.1340001 482:0.93099999 839:0.169 932:0.27399999 1605:0.44800001 1610:0.47099999 2490:4.3590002 2755:0.149 3125:1.345 #
-0.15278612000642735613276101958036 552:0.153 839:0.17299999 1048:0.152 1314:0.36399999 2033:2.3800001 2755:0.171 2801:0.294 2906:0.37799999 3586:0.236 3862:1.658 #
-0.15278612000642735613276101958036 49:0.132 89:0.699 148:0.241 233:1.723 699:0.81300002 1637:1.867 2401:1.335 2453:0.38699999 2755:0.145 2758:1.433 #
-0.15278612000642735613276101958036 49:0.338 362:0.92299998 650:2.3800001 1048:0.13600001 1303:3.1800001 1963:2.599 1986:2.145 2025:0.85299999 2212:0.85299999 2883:1.788 #
0.036264260444920516646138963778867 552:0.214 585:0.414 784:3.1659999 839:0.111 1792:0.27900001 1890:1.005 2755:0.109 3524:1.363 #
0.15278612000642735613276101958036 282:2.145 564:0.71899998 1242:0.242 1354:0.27900001 2017:0.245 2149:1.868 2230:0.50300002 2259:0.27700001 2387:0.736 2861:0.91500002 3242:0.54900002 #
0.15278612000642735613276101958036 798:0.56400001 1321:0.56400001 2755:0.45100001 #
0.15278612000642735613276101958036 49:0.40700001 148:0.65200001 1886:1.4579999 1951:0.38 2493:3 2755:0.117 3515:0.29699999 #
0.15278612000642735613276101958036 148:0.243 435:0.921 839:0.068999998 2485:0.79299998 2755:0.056000002 3345:2.247 #
-0.03606811848619684290895293088397 89:0.699 222:0.458 276:0.35800001 828:0.197 932:0.244 1043:0.69800001 1232:0.85799998 2259:0.23999999 2496:1.283 2755:0.145 2896:4.3590002 #
-0.15278612000642735613276101958036 417:0.34 435:0.245 1080:0.249 1951:0.27599999 2712:0.198 2755:0.133 2960:0.31900001 3190:0.32699999 3345:0.34900001 3714:0.36199999 3769:0.338 #
-0.15278612000642735613276101958036 89:0.329 383:0.514 1242:0.59899998 1833:0.27500001 2195:0.83700001 2755:0.111 2970:1.8380001 3040:0.465 3764:1.02 #
0.15278612000642735613276101958036 594:0.23899999 2226:0.60900003 2755:0.075999998 2906:0.35600001 #
-0.027151275410624790135338813001908 383:0.69099998 594:0.32100001 612:3 798:0.36199999 854:0.72799999 2259:0.26100001 2755:0.109 2881:3.0020001 3199:0.322 3567:0.48800001 #
0.15278612000642735613276101958036 828:0.264 839:0.083999999 876:0.315 1242:0.161 2197:0.338 2259:0.182 2755:0.063000001 3001:0.303 3214:0.32699999 #
0.15278612000642735613276101958036 839:0.139 1055:1.528 2755:0.11 3515:0.74199998 #
-0.15278612000642735613276101958036 585:0.18700001 644:0.25299999 732:0.38600001 839:0.134 1653:0.75800002 1831:1.4579999 2755:0.127 3772:0.82700002 #
-0.15278612000642735613276101958036 564:0.266 839:0.133 949:0.56099999 1223:0.345 1294:0.82300001 2259:0.55500001 2712:0.23899999 2755:0.12899999 2861:0.72500002 3033:0.46200001 #
-0.10177339147034691890780777612235 552:0.204 585:0.169 839:0.14399999 1048:0.198 1359:0.773 1527:4.3590002 1792:0.248 2755:0.134 3174:0.149 3772:0.574 #
-0.03053914630308311728423831254986 2385:1.8559999 2601:4.3590002 2712:0.273 2755:0.184 #
0.15278612000642735613276101958036 562:0.31 839:0.115 1419:1.219 1833:0.458 2485:1.1059999 2755:0.108 2970:1.363 #
0.15278612000642735613276101958036 562:0.329 839:0.109 1419:1.483 1833:0.40000001 2485:1.216 2755:0.1 2970:1.159 #
0.15278612000642735613276101958036 49:0.44800001 839:0.426 1242:0.54699999 1321:0.45899999 2442:0.55599999 2712:0.40900001 2755:0.347 #
-0.15278612000642735613276101958036 89:0.329 383:0.514 1242:0.59899998 1833:0.27500001 2195:0.83700001 2755:0.111 2970:1.8380001 3040:0.465 3764:1.02 #
0.15278612000642735613276101958036 1242:0.122 1730:3.1800001 1744:3 2755:0.15099999 #
-0.010010429006152022843312288102879 839:0.134 957:0.85600001 2719:2.145 2755:0.113 3056:1.345 3167:2.3800001 #
-0.15278612000642735613276101958036 839:0.078000002 871:0.237 1212:0.278 2025:0.80800003 2259:0.234 2755:0.141 3061:0.35100001 3266:0.30000001 3650:0.266 #
-0.086972675242448629906455437321711 160:1.399 871:0.33000001 955:1.286 1021:0.514 1022:1.434 2279:1.286 2715:1.732 2744:1.16 2755:0.13500001 3199:0.229 3373:0.38800001 3586:0.32600001 #
-0.11104809646812598133980287684608 59:2.1340001 148:0.26100001 585:0.24699999 835:1.868 1021:0.46900001 1196:1.868 1225:1.868 2590:1.7 2744:1.069 2755:0.146 3375:2.1340001 3586:0.31900001 #
-0.15278612000642735613276101958036 446:0.62099999 774:1.732 865:0.192 997:2.145 1618:0.75400001 2259:0.184 3547:0.46900001 #
0.15278612000642735613276101958036 148:0.29899999 552:0.33700001 585:0.25600001 839:0.111 1831:3 2755:0.1 3586:0.667 #
0.15278612000642735613276101958036 757:0.32800001 839:0.1 1653:1.434 2755:0.074000001 2999:1.528 3033:1.4579999 3086:2 3810:2 #
0.044520841783633115229523724565297 243:4.3590002 383:3 594:3 842:4.3590002 1312:3 1344:3 2755:0.51599997 3508:3 3728:4.3590002 #
0.15165485735849523751817002903408 753:1.844 839:0.085000001 1857:0.32499999 2259:0.17299999 2468:2.263 2755:0.078000002 3875:1.528 #
0.066557671582107402752370717280428 280:0.82599998 791:0.454 839:0.117 1048:0.294 2000:1.788 2259:0.25 2755:0.071000002 3174:0.46799999 3484:1.487 3824:2.3800001 #
-0.15278612000642735613276101958036 839:0.131 1048:0.177 1876:2.2909999 2755:0.13500001 3174:0.18799999 3234:0.995 3552:0.42699999 3824:3 #
-0.15278612000642735613276101958036 552:0.28 585:0.229 839:0.171 1688:0.96899998 1857:0.345 2402:1.216 2750:0.477 3395:0.79100001 3586:0.28200001 #
-0.15278612000642735613276101958036 839:0.12800001 1048:0.17900001 1549:0.713 1857:0.26300001 2506:0.68800002 2755:0.13500001 2848:0.68199998 2851:0.62900001 3123:0.72299999 3174:0.19599999 3552:0.41 #
-0.15278612000642735613276101958036 629:2 839:0.16599999 1145:0.74199998 1857:0.315 2259:0.205 2421:0.50999999 2755:0.146 2851:0.29699999 3199:0.64499998 #
-0.15278612000642735613276101958036 148:0.285 839:0.156 1093:0.46700001 1833:0.223 1857:0.35699999 2017:0.266 2500:0.184 2755:0.125 3487:0.391 #
0.15278612000642735613276101958036 49:0.184 290:0.54500002 446:0.93199998 535:0.63499999 562:0.273 751:0.40900001 839:0.108 865:0.37900001 1009:0.93199998 2755:0.079000004 3547:0.528 #
0.15278612000642735613276101958036 290:1.562 446:0.77600002 535:0.67799997 562:0.32300001 751:0.62300003 839:0.106 865:0.29899999 1009:0.72799999 2755:0.13500001 3547:1.145 #
0.097837804803699593425569958071719 535:0.53299999 1122:0.60100001 1406:4.3590002 1951:0.39399999 2259:0.271 2342:1.216 2755:0.079000004 2950:1.528 3371:0.64399999 #
-0.067659686318305406471651508581999 546:1.487 839:0.15000001 1145:1.312 1873:4.3590002 2259:0.23999999 2755:0.113 2950:4.3590002 3066:1.3329999 3373:0.32300001 #
-0.15278612000642735613276101958036 49:0.242 290:0.47799999 446:0.565 535:0.514 562:0.84100002 751:0.27599999 839:0.133 865:0.184 1009:0.55500001 2755:0.111 3547:0.48899999 #
-0.07580059591844511002189932469264 290:0.60299999 562:0.44 732:0.52999997 839:0.189 1223:0.56699997 1675:0.50300002 2212:1.163 2223:0.57599998 2719:0.98799998 2755:0.175 3567:0.71399999 #
-0.15278612000642735613276101958036 474:1.341 745:3.339 839:0.184 1021:0.764 1762:0.82300001 2259:0.134 2574:1.409 2755:0.162 3001:0.50599998 3610:0.65399998 #
0.051832115533818272357091672120077 148:0.20200001 562:0.28400001 1172:1.868 1186:0.685 1951:0.30899999 2458:0.31400001 2755:0.081 3410:2.1340001 3471:0.498 #
0.010120788961538673689233291952405 357:0.42899999 839:0.098999999 999:1.1059999 1212:0.35699999 2453:0.32800001 2500:0.28200001 2755:0.068999998 3034:2.55 3185:0.43099999 3456:0.60600001 3650:0.27700001 3852:0.92299998 #
0.15278612000642735613276101958036 585:0.347 839:0.134 1239:0.98400003 2755:0.074000001 3593:2.49 #
0.15278612000642735613276101958036 2755:0.154 3827:1.635 #
-0.048996257518231445260425971355289 102:1 839:0.121 932:0.20100001 1048:0.134 1640:1.176 2442:0.162 2712:0.33399999 2755:0.16500001 2796:4.3590002 3163:0.69499999 #
-0.15278612000642735613276101958036 148:0.26100001 430:0.98699999 839:0.16599999 1048:0.183 1143:0.38600001 1321:0.20100001 2755:0.146 3199:0.64499998 #
-0.071328739416568018305575549220521 280:2 876:0.243 2198:0.41499999 2318:4.3590002 2458:0.36000001 2755:0.142 2758:0.59100002 3163:0.53399998 3174:0.17299999 3412:1.788 #
0.15278612000642735613276101958036 474:0.63499999 745:0.67199999 839:0.14 1021:0.61799997 2259:0.164 2574:0.76899999 2755:0.115 3610:0.46799999 #
0.15278612000642735613276101958036 474:0.55900002 745:0.75300002 839:0.101 1021:0.47499999 2259:0.164 2574:0.60900003 2755:0.105 3610:0.50700003 #
0.15278612000642735613276101958036 474:0.456 745:0.634 839:0.102 1021:0.36700001 2259:0.175 2574:0.60900003 2755:0.098999999 3610:0.454 #
-0.15278612000642735613276101958036 148:0.184 383:0.662 967:0.93699998 1310:1.133 2695:0.442 2755:0.12800001 2792:1.225 2935:0.294 3286:1.216 3649:1.225 #
0.082946506711745332518503914798202 839:0.108 1857:0.389 2259:0.32300001 2390:4.3590002 2527:4.3590002 2574:0.764 2755:0.079999998 3125:2.1029999 3764:1.594 #
0.15278612000642735613276101958036 585:0.24600001 839:0.075999998 1792:0.184 2755:0.052000001 3084:1.174 #
-0.15278612000642735613276101958036 474:1.3200001 747:1.345 839:0.15099999 871:0.54100001 1048:0.184 1321:0.221 2336:0.47999999 2755:0.121 3199:0.69 3610:0.55500001 #
-0.15278612000642735613276101958036 854:1.461 892:0.34599999 1048:0.145 2755:0.16500001 2969:1.732 3174:0.18099999 3515:0.26899999 #
-0.15278612000642735613276101958036 435:0.428 594:0.391 839:0.153 845:0.479 871:0.20900001 932:0.244 992:0.667 1048:0.147 1649:0.82200003 2755:0.153 3373:0.48199999 #
0.11279759490499258189899478566076 1021:0.30599999 1339:2.3800001 1653:0.69099998 2005:4.3590002 2755:0.082999997 3360:3.1800001 3515:0.338 #
0.15278612000642735613276101958036 562:0.493 656:1.567 1242:0.41800001 2755:0.056000002 #
0.15278612000642735613276101958036 627:1.2819999 970:0.412 1242:0.206 1833:0.338 2017:0.244 2289:0.81300002 2755:0.098999999 #
-0.0022423955636168648765382815923886 594:0.65100002 892:0.722 1704:0.80299997 1762:0.72299999 2612:0.72500002 2755:0.109 3072:2.3800001 #
-0.15278612000642735613276101958036 839:0.122 994:0.88599998 1557:1.138 2259:0.257 2724:4.3590002 2755:0.12 2963:0.42899999 3266:0.257 3586:0.264 #
-0.15278612000642735613276101958036 381:1.1059999 839:0.155 1404:1.1059999 2755:0.12800001 #
0.15278612000642735613276101958036 49:0.20900001 780:1.4579999 839:0.074000001 883:0.85000002 1321:0.33500001 1430:2 2755:0.079000004 2906:0.38100001 3508:1.225 #
0.15278612000642735613276101958036 562:0.62800002 839:0.092 1048:0.118 1242:0.23800001 1314:0.546 1792:0.20299999 2017:0.34599999 2442:0.208 2755:0.075000003 3174:0.161 3555:2.1340001 #
0.14234069265879950583197910418676 2755:1.048 2996:0.75400001 3266:0.77700001 3732:1.085 #
-0.044215677320789140147816453918495 319:1.8559999 839:0.118 865:0.35800001 1251:1.8559999 1321:0.37099999 1833:0.243 1880:1.635 2755:0.15099999 2952:1.072 #
-0.15278612000642735613276101958036 89:0.85900003 430:0.48800001 458:0.972 647:0.50400001 692:1.444 732:0.523 839:0.089000002 1232:0.91000003 1473:1.528 2017:0.29300001 2402:0.523 2755:0.146 #
0.15278612000642735613276101958036 594:2.4630001 839:0.112 1144:0.67900002 1263:1.543 2755:0.092 3456:0.505 #
0.067665489065180162153723131268634 121:0.47999999 325:2.145 594:1.47 798:0.35299999 1144:0.50599998 1753:1.4579999 1860:0.94499999 2430:2.3800001 2755:0.11 3553:0.70499998 3566:2 #
0.085807134257407213784318855687161 892:0.46799999 1005:0.23800001 1322:1.4630001 1342:2.3800001 1559:0.70300001 1634:1.3099999 2017:0.242 2755:0.105 3220:3 #
0.15278612000642735613276101958036 594:1.9579999 839:0.109 1005:0.574 1600:0.85799998 1937:1.057 1951:0.417 2252:1.0700001 2334:1.048 2698:1.057 2755:0.098999999 3371:0.68599999 #
-0.15278612000642735613276101958036 383:0.46200001 594:0.322 612:1.498 798:0.45699999 854:0.57800001 2259:0.18799999 2755:0.16500001 2881:1.522 3199:0.66399997 3567:0.70499998 #
0.15278612000642735613276101958036 89:0.48300001 839:0.103 1242:0.19 1833:0.28299999 2256:3 2755:0.077 3406:0.83700001 3487:0.31999999 3883:0.49399999 #
0.15278612000642735613276101958036 49:0.33199999 148:0.49599999 357:0.86799997 650:1.089 790:1.109 1417:1.154 1609:0.57599998 2230:0.65100002 2392:1.103 #
0.15278612000642735613276101958036 148:0.27700001 383:0.86000001 967:0.74699998 1310:0.93000001 2695:0.88300002 2755:0.146 2792:0.94300002 2935:0.43399999 3286:0.94 3649:0.935 #
-0.15278612000642735613276101958036 89:0.30000001 383:0.56300002 1242:0.119 1833:0.35800001 2195:0.90499997 2755:0.105 2970:0.81999999 3040:0.87 3764:0.61500001 #
0.0039472769198937891765854857339946 852:1.1059999 1142:4.3590002 1320:0.58999997 2342:0.73400003 2429:4.3590002 2614:4.3590002 2753:1.4630001 2755:0.075999998 #
0.15278612000642735613276101958036 552:0.221 562:0.29300001 585:0.22499999 839:0.083999999 1314:0.34299999 1833:0.30000001 2755:0.063000001 3487:0.37400001 3586:0.25999999 3770:0.345 #
0.15278612000642735613276101958036 1579:0.46399999 1837:1.345 1931:0.81999999 2259:0.22 2755:0.092 3109:1.156 3199:0.84899998 3436:1.716 #
-0.15278612000642735613276101958036 214:0.47099999 276:0.25999999 757:0.24699999 839:0.16599999 865:0.15099999 2259:0.219 2451:0.296 2458:0.403 2755:0.15000001 3690:0.454 #
0.06350867346121323586682905215639 1064:4.3590002 2392:4.3590002 2755:0.88599998 3764:4.3590002 3805:4.3590002 #
-0.15278612000642735613276101958036 148:0.30399999 430:0.88700002 839:0.164 1048:0.177 1143:0.41999999 1321:0.248 2755:0.145 3199:0.59399998 #
0.15278612000642735613276101958036 273:1.219 892:0.36300001 2259:0.28099999 2386:0.77499998 2755:0.067000002 #
-0.15278612000642735613276101958036 49:0.243 419:2.55 472:1.1569999 839:0.12800001 941:0.82999998 1048:0.113 1114:1.342 1321:0.17399999 2431:0.54900002 2755:0.105 2951:0.54000002 #
-0.15278612000642735613276101958036 552:0.27500001 791:1.211 839:0.096000001 2755:0.094999999 3025:0.83600003 3190:0.38499999 #
-0.15278612000642735613276101958036 813:0.773 2438:0.71100003 2668:0.71399999 2755:0.122 2851:0.34200001 3195:0.347 3712:0.66500002 #
0.15278612000642735613276101958036 430:0.57200003 496:0.87900001 2755:0.068000004 #
0.11330198993503501347923645425908 576:1.063 839:0.083999999 1778:3.1800001 1843:1.342 1890:0.671 2442:0.237 2755:0.063000001 2996:0.39399999 3266:0.31600001 #
0.15278612000642735613276101958036 148:0.30199999 383:0.84100002 967:0.71399999 1310:0.91000003 2695:0.86400002 2755:0.15099999 2792:0.92199999 2935:0.42399999 3286:0.92500001 3649:0.91000003 #
-0.15278612000642735613276101958036 757:0.215 839:0.154 865:0.147 2438:0.83399999 2755:0.113 2935:0.214 #
0.047513709308273248399512311834769 49:0.278 361:3 852:1.003 1519:0.56800002 1829:0.44800001 2061:1.1059999 2156:0.433 2422:1.487 2755:0.085000001 3773:0.38600001 #
-0.15278612000642735613276101958036 798:0.38100001 839:0.146 854:0.493 929:0.52399999 1579:0.368 2259:0.215 2755:0.13 2851:0.30700001 3199:0.72299999 3479:0.50800002 3515:0.352 #
0.08273351731260301933357226289445 488:1.085 512:2.1630001 647:0.57599998 791:1.878 942:0.34599999 2755:0.075000003 2953:1.314 #
0.039571234954531131489119388788822 121:0.685 839:0.117 931:2.5840001 2259:0.25 2591:2.4909999 2755:0.071000002 #
0.15278612000642735613276101958036 699:1.035 791:1.0039999 839:0.106 1242:0.156 1792:0.178 2442:0.193 2755:0.13500001 #
0.15278612000642735613276101958036 791:0.76700002 1005:0.44499999 1021:0.26699999 1048:0.121 1579:0.89899999 2114:0.90499997 2400:0.97399998 2453:0.347 2755:0.079000004 3174:0.12899999 #
-0.15278612000642735613276101958036 552:0.27500001 791:1.211 839:0.096000001 2755:0.094999999 3025:0.83600003 3190:0.38499999 #
0.12471803958215775531837010703384 383:3 932:0.70999998 3416:1.732 3515:1.635 3650:4.3590002 #
0.15278612000642735613276101958036 594:0.28299999 968:0.57599998 1163:0.5 1605:0.56099999 2755:0.077 3199:0.484 #
0.15278612000642735613276101958036 474:0.59600002 839:0.103 2574:0.74900001 2708:2 2755:0.077 3199:0.484 3610:0.48300001 #
-0.15278612000642735613276101958036 798:0.32100001 839:0.133 854:0.565 929:0.59600002 1579:1.258 2259:0.55500001 2755:0.12899999 2851:0.33500001 3199:0.537 3479:0.41299999 3515:0.31600001 #
-0.053426033067459979819524562572042 381:1.117 482:0.56999999 1605:1 2755:0.171 3102:3.391 3168:3 3515:0.31299999 3579:2.145 #
0.15278612000642735613276101958036 552:0.405 732:0.55500001 757:0.29800001 808:1.1059999 839:0.090000004 1242:0.23999999 1417:0.935 1803:0.98799998 2755:0.096000001 3690:0.51800001 #
0.15278612000642735613276101958036 180:1.399 2632:1.658 2755:0.146 3373:0.426 #
0.066469754442559869644924219755922 49:0.13500001 164:4.3590002 766:3 798:0.34299999 839:0.107 1048:0.118 1577:0.389 1675:0.49399999 1792:0.206 2017:0.345 2442:0.148 2755:0.15099999 3052:0.421 3174:0.13 #
0.01869177085734668314342954431595 839:0.13699999 1145:1.039 2755:0.11 3021:4.3590002 3717:4.3590002 #
0.15278612000642735613276101958036 994:1.077 2259:0.294 2755:0.075999998 3586:0.31299999 #
-0.15278612000642735613276101958036 383:0.62699997 1160:1.528 1212:0.336 2340:1.528 2755:0.113 3025:0.447 3127:0.81300002 #
0.15278612000642735613276101958036 276:0.28999999 497:0.27599999 1466:2.5020001 2259:0.182 2755:0.063000001 3040:0.354 #
0.14677485007455123855457657100487 252:2 718:1.3099999 839:0.138 2336:0.801 2360:1.3099999 2755:0.088 3199:0.63499999 3586:0.233 #
-0.15278612000642735613276101958036 798:0.35800001 839:0.12800001 854:0.44100001 929:0.51099998 1579:0.331 2259:0.191 2755:0.122 2851:0.33500001 3199:0.75 3479:0.54299998 3515:0.354 #
0.029393528733572163447185232598713 357:1.0039999 695:4.3590002 1812:0.75700003 2404:4.3590002 2592:1.003 2755:0.117 2993:4.3590002 3175:1.225 #
0.10616853661422862020735635724122 765:4.3590002 839:0.097999997 1160:1.732 1212:0.35100001 1566:0.88 2755:0.067000002 3219:4.3590002 #
-0.12994073388732557683411528159922 17:1.3839999 839:0.134 1117:2.145 1610:0.49399999 1951:0.53200001 2649:1.4579999 2755:0.127 2864:0.338 3846:0.85299999 #
0.15278612000642735613276101958036 839:0.127 2176:1.16 2712:0.25299999 2755:0.108 3419:1.528 #
0.15278612000642735613276101958036 839:0.111 2176:2.1340001 2712:0.35499999 2755:0.068000004 3419:1.483 #
0.15278612000642735613276101958036 148:0.28600001 383:0.64399999 967:1.0700001 1310:1.072 2695:0.82300001 2755:0.096000001 2792:1.072 2935:0.44299999 3286:1.006 3649:1.006 #
0.15278612000642735613276101958036 839:0.112 1048:0.264 1327:0.79799998 1418:0.80500001 2017:0.237 2755:0.090999998 2953:0.85399997 3174:0.257 #
0.15278612000642735613276101958036 589:0.85799998 2068:1.064 2755:0.071999997 3199:0.373 3515:0.28600001 #
0.15278612000642735613276101958036 1321:0.23 1659:1.112 2206:0.662 2755:0.156 2906:0.21699999 3828:0.70499998 #
-0.15278612000642735613276101958036 839:0.15700001 1053:0.48899999 1321:0.25 1951:0.34200001 2458:0.50400001 2500:0.22400001 2755:0.139 3190:0.34900001 3373:0.34799999 #
0.15278612000642735613276101958036 89:0.704 145:1.487 482:2 2712:0.32300001 2755:0.098999999 3163:0.53799999 #
0.15278612000642735613276101958036 839:0.097000003 1400:0.48699999 2510:2.756 2712:0.16500001 2755:0.075000003 2801:0.37799999 2910:0.52399999 3552:0.345 #
0.15278612000642735613276101958036 865:0.317 2755:0.093999997 3486:1.3099999 #
-0.15278612000642735613276101958036 635:0.28799999 691:0.233 970:0.28 2583:0.62099999 2755:0.102 2882:0.31900001 2906:0.29800001 3883:0.23800001 #
0.15278612000642735613276101958036 650:0.96100003 1048:0.116 2336:0.66600001 2386:0.574 2755:0.075000003 3174:0.16 3371:0.83600003 3404:1.072 #
0.12254891189821356944911201480863 131:1.732 552:0.361 839:0.13699999 888:1.732 892:0.68099999 1314:0.54000002 1922:1.183 2500:0.373 2693:0.92299998 2755:0.109 3221:1.1160001 3401:1.8559999 3856:0.99199998 #
0.036517023563692671550562351967528 820:3 1609:0.249 2186:0.361 2755:0.056000002 3130:1.008 3199:0.49200001 3292:0.53600001 3456:0.62400001 #
0.15278612000642735613276101958036 472:0.51800001 839:0.1 1048:0.164 1223:0.85100001 1321:0.30700001 1369:1.3099999 1579:0.322 1667:0.77600002 2230:0.53799999 2755:0.089000002 #
0.15278612000642735613276101958036 562:0.242 644:0.35800001 839:0.102 1610:0.72299999 2458:0.33199999 2755:0.105 2864:0.34099999 3190:0.41800001 3839:0.727 #
0.0066530385478137379559604447365473 442:3 461:0.35800001 871:0.70999998 1667:1 2198:0.65899998 2230:0.72100002 2259:0.215 2500:1.131 2755:0.094999999 #
0.012957528842234878468930858730346 839:0.097000003 1242:0.199 1399:4.3590002 1583:4.3590002 2442:0.30199999 2623:1.4579999 2755:0.079000004 3199:0.48300001 3215:4.3590002 #
0.15278612000642735613276101958036 400:0.96899998 585:0.193 839:0.090000004 2755:0.083999999 3295:0.76999998 3340:1.3099999 #
0.15278612000642735613276101958036 75:2 688:2 1609:0.91500002 2061:2 2755:0.361 #
-0.15278612000642735613276101958036 148:0.31 472:0.27700001 562:0.26800001 691:0.31400001 839:0.133 849:0.35499999 876:0.32100001 1242:0.211 1469:0.35100001 2755:0.12899999 3883:0.322 #
0.043341824798851534550347963659078 148:0.26199999 237:4.3590002 635:0.39500001 839:0.106 2289:1.049 2755:0.093999997 2939:0.75800002 3199:0.273 3852:1.4579999 #
-0.15278612000642735613276101958036 89:0.228 383:0.68400002 1242:0.52700001 1833:0.287 2195:0.61400002 2755:0.105 2970:1.321 3040:0.40000001 3764:0.87599999 #
0.15278612000642735613276101958036 413:1.025 828:0.19400001 1048:0.113 1242:0.12800001 1321:0.33700001 1486:0.97899997 2442:0.177 2558:0.82499999 2755:0.075999998 3174:0.23800001 #
0.15278612000642735613276101958036 472:0.46900001 1048:0.113 1154:1.266 1242:0.241 1397:1.454 1896:1.612 2755:0.068999998 #
0.028064051148471137742124170699753 839:0.104 951:4.3590002 968:0.986 1143:0.49599999 1321:0.31099999 2259:0.125 2305:3.1800001 2755:0.085000001 #
0.15278612000642735613276101958036 594:0.25299999 968:0.55199999 1163:0.49900001 1605:0.66100001 2755:0.079000004 3199:0.419 #
-0.15278612000642735613276101958036 798:0.33399999 839:0.13500001 854:0.55599999 929:0.57099998 1579:1.228 2259:0.52399999 2755:0.122 2851:0.331 3199:0.551 3479:0.417 3515:0.301 #
-0.15278612000642735613276101958036 148:0.26100001 472:0.33199999 562:0.30199999 691:0.249 839:0.16599999 849:0.36399999 876:0.26199999 1242:0.20900001 1469:0.366 2755:0.146 3883:0.27399999 #
-0.14229077684156588023967060507857 1804:3 1932:1.528 2062:2.55 2755:0.18000001 3412:3 3459:2 #
0.15278612000642735613276101958036 341:1.788 458:0.96899998 472:0.59799999 839:0.093999997 1048:0.116 2017:0.229 2712:0.252 2755:0.072999999 3174:0.245 #
0.01850355120332688660389486301483 751:0.31 865:0.33199999 962:1.3099999 1927:1.183 2017:0.296 2755:0.090000004 3195:0.99599999 3325:1.342 #
0.1454274292153275027761338833443 182:1.309 276:0.252 757:0.249 839:0.113 917:1.137 1334:2.1630001 2259:0.178 2724:0.80699998 2755:0.156 #
0.15278612000642735613276101958036 1160:1.225 2755:0.146 #
-0.15278612000642735613276101958036 148:0.296 472:0.278 562:0.259 691:0.31900001 839:0.131 849:0.35800001 876:0.31 1242:0.20999999 1469:0.36000001 2755:0.139 3883:0.33399999 #
-0.15278612000642735613276101958036 148:0.278 472:0.28299999 562:0.25299999 691:0.32100001 839:0.13699999 849:0.36300001 876:0.32100001 1242:0.213 1469:0.36399999 2755:0.145 3883:0.338 #
-0.15278612000642735613276101958036 148:0.20299999 472:0.29300001 562:0.20100001 691:0.287 839:0.17299999 849:0.38800001 876:0.30899999 1242:0.122 1469:0.421 2755:0.115 3883:0.27500001 #
0.15278612000642735613276101958036 839:0.12 1792:0.189 2755:0.146 #
0.0899812107091011587067796995143 562:0.292 839:0.139 2269:4.3590002 2582:1.022 2755:0.081 3126:2.3800001 3420:0.713 #
0.040222475377378053007504377092118 127:1.033 299:3 585:0.24699999 876:0.236 1242:0.12800001 2755:0.075999998 3025:0.442 #
0.15278612000642735613276101958036 89:0.60799998 773:1.325 970:0.54500002 1242:0.34200001 2755:0.109 #
0.15278612000642735613276101958036 89:0.51800001 828:0.546 2017:0.25299999 2755:0.079999998 2833:1.355 3585:1.355 #
0.14072102822132839805568949032022 330:2 839:0.115 1048:0.206 1272:2 1675:0.85100001 2103:2 2282:1.128 2712:0.384 2755:0.090000004 3052:0.75199997 3174:0.18099999 3515:0.96200001 #
0.15278612000642735613276101958036 644:0.27500001 839:0.075999998 2755:0.081 2864:0.266 3357:1.837 3509:1.528 #
0.038266416639657782616801284802932 49:0.16500001 1181:1.225 1242:0.25400001 1792:0.186 2755:0.108 2758:0.41800001 3619:1.4910001 3650:0.234 #
-0.072314817208432843886889429541043 597:0.82099998 1609:0.13500001 2441:2.046 2647:1.844 2755:0.115 2851:0.39399999 3190:0.77600002 3220:2.046 3544:0.764 #
0.15278612000642735613276101958036 49:0.17200001 757:0.36000001 865:0.317 1321:0.294 1951:0.34799999 2259:0.266 2644:0.82700002 2748:0.75599998 2755:0.093999997 3195:0.359 #
0.15278612000642735613276101958036 127:1.64 266:0.88 745:0.69700003 839:0.097999997 1093:0.69 1682:1.528 2259:0.34999999 2750:0.47799999 2755:0.079000004 3391:1.4579999 #
0.075761243745968209761798561885371 656:0.40900001 1005:0.38699999 1579:1.22 1807:1.732 2755:0.125 3406:0.509 3567:0.79299998 3692:1.8559999 3702:0.91900003 #
0.15278612000642735613276101958036 969:1.612 2695:0.87800002 2755:0.059 2845:2.3800001 #
0.023345093515576859771742945781625 222:0.31600001 839:0.115 1242:0.221 1535:0.815 2755:0.152 2846:1.382 2963:0.308 3071:1.788 3487:0.35699999 #
0.15278612000642735613276101958036 496:0.64499998 2755:0.075000003 #
0.077090735176102750947357833410933 91:0.92699999 585:0.264 839:0.122 1021:0.345 1144:0.303 1466:0.58999997 1792:0.18000001 2546:1.635 2755:0.125 3586:0.266 3748:0.76999998 3760:1.8559999 #
0.15278612000642735613276101958036 1793:1.559 1854:1.8609999 2180:1.7 2755:0.73400003 3586:1.705 #
-0.15278612000642735613276101958036 839:0.15099999 871:0.30199999 1048:0.14399999 2712:0.252 2755:0.15800001 3174:0.125 3498:0.66000003 #
